{"learner":{"attributes":{"scikit_learn":"{\"_estimator_type\": \"classifier\"}"},"feature_names":[],"feature_types":[],"gradient_booster":{"model":{"cats":{"enc":[],"feature_segments":[],"sorted_idx":[]},"gbtree_model_param":{"num_parallel_tree":"1","num_trees":"500"},"iteration_indptr":[0,1,2,3,4,5,6,7,8,9,10,11,12,13,14,15,16,17,18,19,20,21,22,23,24,25,26,27,28,29,30,31,32,33,34,35,36,37,38,39,40,41,42,43,44,45,46,47,48,49,50,51,52,53,54,55,56,57,58,59,60,61,62,63,64,65,66,67,68,69,70,71,72,73,74,75,76,77,78,79,80,81,82,83,84,85,86,87,88,89,90,91,92,93,94,95,96,97,98,99,100,101,102,103,104,105,106,107,108,109,110,111,112,113,114,115,116,117,118,119,120,121,122,123,124,125,126,127,128,129,130,131,132,133,134,135,136,137,138,139,140,141,142,143,144,145,146,147,148,149,150,151,152,153,154,155,156,157,158,159,160,161,162,163,164,165,166,167,168,169,170,171,172,173,174,175,176,177,178,179,180,181,182,183,184,185,186,187,188,189,190,191,192,193,194,195,196,197,198,199,200,201,202,203,204,205,206,207,208,209,210,211,212,213,214,215,216,217,218,219,220,221,222,223,224,225,226,227,228,229,230,231,232,233,234,235,236,237,238,239,240,241,242,243,244,245,246,247,248,249,250,251,252,253,254,255,256,257,258,259,260,261,262,263,264,265,266,267,268,269,270,271,272,273,274,275,276,277,278,279,280,281,282,283,284,285,286,287,288,289,290,291,292,293,294,295,296,297,298,299,300,301,302,303,304,305,306,307,308,309,310,311,312,313,314,315,316,317,318,319,320,321,322,323,324,325,326,327,328,329,330,331,332,333,334,335,336,337,338,339,340,341,342,343,344,345,346,347,348,349,350,351,352,353,354,355,356,357,358,359,360,361,362,363,364,365,366,367,368,369,370,371,372,373,374,375,376,377,378,379,380,381,382,383,384,385,386,387,388,389,390,391,392,393,394,395,396,397,398,399,400,401,402,403,404,405,406,407,408,409,410,411,412,413,414,415,416,417,418,419,420,421,422,423,424,425,426,427,428,429,430,431,432,433,434,435,436,437,438,439,440,441,442,443,444,445,446,447,448,449,450,451,452,453,454,455,456,457,458,459,460,461,462,463,464,465,466,467,468,469,470,471,472,473,474,475,476,477,478,479,480,481,482,483,484,485,486,487,488,489,490,491,492,493,494,495,496,497,498,499,500],"tree_info":[0,0,0,0,0,0,0,0,0,0,0,0,0,0,0,0,0,0,0,0,0,0,0,0,0,0,0,0,0,0,0,0,0,0,0,0,0,0,0,0,0,0,0,0,0,0,0,0,0,0,0,0,0,0,0,0,0,0,0,0,0,0,0,0,0,0,0,0,0,0,0,0,0,0,0,0,0,0,0,0,0,0,0,0,0,0,0,0,0,0,0,0,0,0,0,0,0,0,0,0,0,0,0,0,0,0,0,0,0,0,0,0,0,0,0,0,0,0,0,0,0,0,0,0,0,0,0,0,0,0,0,0,0,0,0,0,0,0,0,0,0,0,0,0,0,0,0,0,0,0,0,0,0,0,0,0,0,0,0,0,0,0,0,0,0,0,0,0,0,0,0,0,0,0,0,0,0,0,0,0,0,0,0,0,0,0,0,0,0,0,0,0,0,0,0,0,0,0,0,0,0,0,0,0,0,0,0,0,0,0,0,0,0,0,0,0,0,0,0,0,0,0,0,0,0,0,0,0,0,0,0,0,0,0,0,0,0,0,0,0,0,0,0,0,0,0,0,0,0,0,0,0,0,0,0,0,0,0,0,0,0,0,0,0,0,0,0,0,0,0,0,0,0,0,0,0,0,0,0,0,0,0,0,0,0,0,0,0,0,0,0,0,0,0,0,0,0,0,0,0,0,0,0,0,0,0,0,0,0,0,0,0,0,0,0,0,0,0,0,0,0,0,0,0,0,0,0,0,0,0,0,0,0,0,0,0,0,0,0,0,0,0,0,0,0,0,0,0,0,0,0,0,0,0,0,0,0,0,0,0,0,0,0,0,0,0,0,0,0,0,0,0,0,0,0,0,0,0,0,0,0,0,0,0,0,0,0,0,0,0,0,0,0,0,0,0,0,0,0,0,0,0,0,0,0,0,0,0,0,0,0,0,0,0,0,0,0,0,0,0,0,0,0,0,0,0,0,0,0,0,0,0,0,0,0,0,0,0,0,0,0,0,0,0,0,0,0,0,0,0,0,0,0,0,0,0,0,0,0,0,0,0,0,0,0,0,0,0,0,0,0,0,0,0,0,0,0,0,0,0,0,0,0,0,0,0,0,0,0,0,0,0,0,0,0,0,0,0,0,0],"trees":[{"base_weights":[2.6275963E-3,-1.9832321E0,9.9988155E-2,-9.971189E-2,9.590101E-2],"categories":[],"categories_nodes":[],"categories_segments":[],"categories_sizes":[],"default_left":[0,0,0,0,0],"id":0,"left_children":[1,3,-1,-1,-1],"loss_changes":[6.716174E4,3.6839844E2,0E0,0E0,0E0],"parents":[2147483647,0,0,1,1],"right_children":[2,4,-1,-1,-1],"split_conditions":[8E1,2E0,9.9988155E-2,-9.971189E-2,9.590101E-2],"split_indices":[1,2,0,0,0],"split_type":[0,0,0,0,0],"sum_hessian":[1.6932246E4,8.490095E3,8.442152E3,8.466698E3,2.3396265E1],"tree_param":{"num_deleted":"0","num_feature":"7","num_nodes":"5","size_leaf_vector":"1"}},{"base_weights":[4.7681974E-3,-1.8888597E0,9.523114E-2,-9.5243625E-2,9.5958196E-2],"categories":[],"categories_nodes":[],"categories_segments":[],"categories_sizes":[],"default_left":[0,0,0,0,0],"id":1,"left_children":[1,3,-1,-1,-1],"loss_changes":[6.0922797E4,5.2080664E2,0E0,0E0,0E0],"parents":[2147483647,0,0,1,1],"right_children":[2,4,-1,-1,-1],"split_conditions":[8E1,5E0,9.523114E-2,-9.5243625E-2,9.5958196E-2],"split_indices":[1,0,0,0,0],"split_type":[0,0,0,0,0],"sum_hessian":[1.6932207E4,8.480003E3,8.452204E3,8.444991E3,3.5011658E1],"tree_param":{"num_deleted":"0","num_feature":"7","num_nodes":"5","size_leaf_vector":"1"}},{"base_weights":[2.1862585E-4,-1.8090391E0,9.112179E-2,-9.1132686E-2,9.059166E-2],"categories":[],"categories_nodes":[],"categories_segments":[],"categories_sizes":[],"default_left":[0,0,0,0,0],"id":2,"left_children":[1,3,-1,-1,-1],"loss_changes":[5.5214492E4,4.1757422E2,0E0,0E0,0E0],"parents":[2147483647,0,0,1,1],"right_children":[2,4,-1,-1,-1],"split_conditions":[8E1,5E0,9.112179E-2,-9.1132686E-2,9.059166E-2],"split_indices":[1,0,0,0,0],"split_type":[0,0,0,0,0],"sum_hessian":[1.6745596E4,8.402682E3,8.342915E3,8.3717E3,3.0981003E1],"tree_param":{"num_deleted":"0","num_feature":"7","num_nodes":"5","size_leaf_vector":"1"}},{"base_weights":[6.5550436E-3,-1.7393773E0,8.7539785E-2,-8.729099E-2,8.231339E-2],"categories":[],"categories_nodes":[],"categories_segments":[],"categories_sizes":[],"default_left":[0,0,0,0,0],"id":3,"left_children":[1,3,-1,-1,-1],"loss_changes":[5.061602E4,1.8405078E2,0E0,0E0,0E0],"parents":[2147483647,0,0,1,1],"right_children":[2,4,-1,-1,-1],"split_conditions":[8E1,2E0,8.7539785E-2,-8.729099E-2,8.231339E-2],"split_indices":[1,2,0,0,0],"split_type":[0,0,0,0,0],"sum_hessian":[1.6618887E4,8.305418E3,8.31347E3,8.290127E3,1.5290514E1],"tree_param":{"num_deleted":"0","num_feature":"7","num_nodes":"5","size_leaf_vector":"1"}},{"base_weights":[-6.473075E-3,-9.588179E-1,8.442074E-2,-1.4243051E0,8.434885E-2,-1.560939E0,8.417718E-2,-1.5812352E0,8.2831986E-2,-8.437802E-2,-1.5479559E0,-1.5401134E0,-8.273489E-2,-7.867347E-2,-7.615183E-2],"categories":[],"categories_nodes":[],"categories_segments":[],"categories_sizes":[],"default_left":[0,0,0,0,0,0,0,0,0,0,0,0,0,0,0],"id":4,"left_children":[1,3,-1,5,-1,7,-1,9,-1,-1,11,13,-1,-1,-1],"loss_changes":[2.628302E4,1.2842035E4,0E0,3.7675E3,0E0,5.572676E2,0E0,2.7251953E1,0E0,0E0,2.8427734E0,1.0302734E0,0E0,0E0,0E0],"parents":[2147483647,0,0,1,1,3,3,5,5,7,7,10,10,11,11],"right_children":[2,4,-1,6,-1,8,-1,10,-1,-1,12,14,-1,-1,-1],"split_conditions":[5E0,2E0,8.442074E-2,3E0,8.434885E-2,1E0,8.417718E-2,2E0,8.2831986E-2,-8.437802E-2,2.024E3,3E0,-8.273489E-2,-7.867347E-2,-7.615183E-2],"split_indices":[0,2,0,3,0,4,0,0,0,0,5,0,0,0,0],"split_type":[0,0,0,0,0,0,0,0,0,0,0,0,0,0,0],"sum_hessian":[1.6281207E4,1.0424303E4,5.8569033E3,8.865088E3,1.5592152E3,8.492232E3,3.728558E2,8.439505E3,5.2727085E1,1.9999811E3,6.439524E3,6.0131587E3,4.2636548E2,2.0052284E3,4.0079302E3],"tree_param":{"num_deleted":"0","num_feature":"7","num_nodes":"15","size_leaf_vector":"1"}},{"base_weights":[-5.0421827E-3,-9.318837E-1,8.1624135E-2,-1.3708354E0,8.15657E-2,-1.5075411E0,8.141202E-2,-1.5522811E0,8.5860156E-2,-1.5623063E0,7.863441E-2,-8.159355E-2,-1.5402397E0,-7.9038076E-2,-7.641317E-2],"categories":[],"categories_nodes":[],"categories_segments":[],"categories_sizes":[],"default_left":[0,0,0,0,0,0,0,0,0,0,0,0,0,0,0],"id":5,"left_children":[1,3,-1,5,-1,7,-1,9,-1,11,-1,-1,13,-1,-1],"loss_changes":[2.4378557E4,1.15426455E4,0E0,3.5930996E3,0E0,1.2112012E3,0E0,2.6130664E2,0E0,1.0130859E1,0E0,0E0,6.279297E-1,0E0,0E0],"parents":[2147483647,0,0,1,1,3,3,5,5,7,7,9,9,12,12],"right_children":[2,4,-1,6,-1,8,-1,10,-1,12,-1,-1,14,-1,-1],"split_conditions":[5E0,2E0,8.1624135E-2,3E0,8.15657E-2,9E0,8.141202E-2,1E0,8.5860156E-2,2E0,7.863441E-2,-8.159355E-2,2E0,-7.9038076E-2,-7.641317E-2],"split_indices":[0,2,0,3,0,6,0,4,0,0,0,0,6,0,0],"split_type":[0,0,0,0,0,0,0,0,0,0,0,0,0,0,0],"sum_hessian":[1.6060551E4,1.0256045E4,5.804506E3,8.75688E3,1.4991648E3,8.375597E3,3.8128378E2,8.261495E3,1.14101295E2,8.235575E3,2.5920324E1,1.9657145E3,6.2698604E3,1.400458E3,4.8694023E3],"tree_param":{"num_deleted":"0","num_feature":"7","num_nodes":"15","size_leaf_vector":"1"}},{"base_weights":[-1.3389776E-2,-9.041929E-1,7.915343E-2,-1.3261969E0,7.9089016E-2,-1.4574373E0,7.8939594E-2,-1.500806E0,8.271163E-2,-7.911536E-2,-1.4750106E0,-1.4253082E0,-1.4875888E0,-7.91344E-2,-6.9223545E-2,-7.1939945E-2,-7.563957E-2],"categories":[],"categories_nodes":[],"categories_segments":[],"categories_sizes":[],"default_left":[0,0,0,0,0,0,0,0,0,0,0,0,0,0,0,0,0],"id":6,"left_children":[1,3,-1,5,-1,7,-1,9,-1,-1,11,13,15,-1,-1,-1,-1],"loss_changes":[2.2223926E4,1.052487E4,0E0,3.2716543E3,0E0,1.1097656E3,0E0,1.4681641E1,0E0,0E0,1.7314453E0,5.960449E0,3.8427734E0,0E0,0E0,0E0,0E0],"parents":[2147483647,0,0,1,1,3,3,5,5,7,7,10,10,11,11,12,12],"right_children":[2,4,-1,6,-1,8,-1,10,-1,-1,12,14,16,-1,-1,-1,-1],"split_conditions":[5E0,2E0,7.915343E-2,3E0,7.9089016E-2,9E0,7.8939594E-2,2E0,8.271163E-2,-7.911536E-2,2.013E3,2E0,3E0,-7.91344E-2,-6.9223545E-2,-7.1939945E-2,-7.563957E-2],"split_indices":[0,2,0,3,0,6,0,0,0,0,5,6,6,0,0,0,0],"split_type":[0,0,0,0,0,0,0,0,0,0,0,0,0,0,0,0,0],"sum_hessian":[1.5625203E4,1.0029375E4,5.595828E3,8.574316E3,1.4550582E3,8.204171E3,3.7014627E2,8.091907E3,1.1226303E2,1.9308892E3,6.161018E3,1.2673677E3,4.8936504E3,2.5332892E2,1.01403876E3,1.6866141E3,3.2070364E3],"tree_param":{"num_deleted":"0","num_feature":"7","num_nodes":"17","size_leaf_vector":"1"}},{"base_weights":[3.6019662E-3,-8.667155E-1,7.692582E-2,-1.1635906E0,7.686085E-2,-1.2950108E0,7.7830486E-2,-1.3138201E0,7.794502E-2,-7.6897755E-2,-1.2480412E0,-1.4032325E0,-1.2367263E0,-7.286738E-2,-6.4761095E-2,-6.1349194E-2,-6.8080366E-2],"categories":[],"categories_nodes":[],"categories_segments":[],"categories_sizes":[],"default_left":[0,0,0,0,0,0,0,0,0,0,0,0,0,0,0,0,0],"id":7,"left_children":[1,3,-1,5,-1,7,-1,9,-1,-1,11,13,15,-1,-1,-1,-1],"loss_changes":[2.0690996E4,7.0559106E3,0E0,3.1473496E3,0E0,4.5261133E2,0E0,1.2102539E2,0E0,0E0,9.594727E0,6.3183594E-1,5.65625E0,0E0,0E0,0E0,0E0],"parents":[2147483647,0,0,1,1,3,3,5,5,7,7,10,10,11,11,12,12],"right_children":[2,4,-1,6,-1,8,-1,10,-1,-1,12,14,16,-1,-1,-1,-1],"split_conditions":[5E0,3E0,7.692582E-2,9E0,7.686085E-2,1E0,7.7830486E-2,2E0,7.794502E-2,-7.6897755E-2,2.011E3,4E0,2.024E3,-7.286738E-2,-6.4761095E-2,-6.1349194E-2,-6.8080366E-2],"split_indices":[0,3,0,6,0,4,0,0,0,0,5,0,5,0,0,0,0],"split_type":[0,0,0,0,0,0,0,0,0,0,0,0,0,0,0,0,0],"sum_hessian":[1.5486866E4,9.883323E3,5.603544E3,8.797398E3,1.0859241E3,8.39246E3,4.0493854E2,8.338046E3,5.441404E1,1.8867542E3,6.451292E3,4.3003165E2,6.0212603E3,2.7817072E2,1.5186093E2,5.595556E3,4.257043E2],"tree_param":{"num_deleted":"0","num_feature":"7","num_nodes":"17","size_leaf_vector":"1"}},{"base_weights":[-4.6123196E-3,-8.417921E-1,7.493144E-2,-1.2541481E0,7.59847E-2,-1.3784913E0,7.473748E-2,-1.39575E0,7.583406E-2,-7.49039E-2,-1.3642217E0,-1.3263884E0,-1.3903756E0,-6.95857E-2,-6.4679556E-2,-6.894638E-2,-7.3846474E-2],"categories":[],"categories_nodes":[],"categories_segments":[],"categories_sizes":[],"default_left":[0,0,0,0,0,0,0,0,0,0,0,0,0,0,0,0,0],"id":8,"left_children":[1,3,-1,5,-1,7,-1,9,-1,-1,11,13,15,-1,-1,-1,-1],"loss_changes":[1.8999223E4,9.44427E3,0E0,2.8239219E3,0E0,3.9680664E2,0E0,2.3291016E1,0E0,0E0,4.107422E0,3.5126953E0,1.4663086E0,0E0,0E0,0E0,0E0],"parents":[2147483647,0,0,1,1,3,3,5,5,7,7,10,10,11,11,12,12],"right_children":[2,4,-1,6,-1,8,-1,10,-1,-1,12,14,16,-1,-1,-1,-1],"split_conditions":[5E0,2E0,7.493144E-2,3E0,7.59847E-2,1E0,7.473748E-2,2E0,7.583406E-2,-7.49039E-2,2.016E3,3E0,2.024E3,-6.95857E-2,-6.4679556E-2,-6.894638E-2,-7.3846474E-2],"split_indices":[0,2,0,3,0,4,0,0,0,0,5,0,5,0,0,0,0],"split_type":[0,0,0,0,0,0,0,0,0,0,0,0,0,0,0,0,0],"sum_hessian":[1.5094921E4,9.695678E3,5.3992427E3,8.2547295E3,1.4409487E3,7.8979727E3,3.5675674E2,7.8516846E3,4.6287685E1,1.838417E3,6.0132676E3,2.4789766E3,3.534291E3,8.147406E2,1.6642361E3,3.136385E3,3.9790622E2],"tree_param":{"num_deleted":"0","num_feature":"7","num_nodes":"17","size_leaf_vector":"1"}},{"base_weights":[4.226566E-3,-7.289143E-1,7.339607E-2,-1.0557523E0,7.307792E-2,-1.1969007E0,7.4709736E-2,-1.231195E0,7.3606245E-2,-1.2228904E0,-1.3493881E0,-1.2326028E0,-1.100388E0,-4.0432747E-2,-7.11823E-2,-6.0401797E-2,-6.4165294E-2,-6.1134666E-2,-4.9241666E-2],"categories":[],"categories_nodes":[],"categories_segments":[],"categories_sizes":[],"default_left":[0,0,0,0,0,0,0,0,0,0,0,0,0,0,0,0,0,0,0],"id":9,"left_children":[1,3,-1,5,-1,7,-1,9,-1,11,13,15,17,-1,-1,-1,-1,-1,-1],"loss_changes":[1.5907907E4,7.0728325E3,0E0,3.0953994E3,0E0,7.473408E2,0E0,6.243164E0,0E0,7.595703E0,1.9660583E1,7.125E0,6.739929E0,0E0,0E0,0E0,0E0,0E0,0E0],"parents":[2147483647,0,0,1,1,3,3,5,5,7,7,9,9,10,10,11,11,12,12],"right_children":[2,4,-1,6,-1,8,-1,10,-1,12,14,16,18,-1,-1,-1,-1,-1,-1],"split_conditions":[2E0,3E0,7.339607E-2,9E0,7.307792E-2,1E0,7.4709736E-2,2.024E3,7.3606245E-2,2.023E3,1E0,6E0,2E0,-4.0432747E-2,-7.11823E-2,-6.0401797E-2,-6.4165294E-2,-6.1134666E-2,-4.9241666E-2],"split_indices":[2,3,0,6,0,4,0,5,0,5,6,6,3,0,0,0,0,0,0],"split_type":[0,0,0,0,0,0,0,0,0,0,0,0,0,0,0,0,0,0,0],"sum_hessian":[1.4822334E4,9.876072E3,4.9462617E3,8.594252E3,1.2818208E3,8.1439844E3,4.5026712E2,8.0412017E3,1.0278256E2,7.523897E3,5.1730475E2,6.9628003E3,5.610969E2,6.3898407E1,4.5340637E2,4.7069834E3,2.2558167E3,2.6793195E2,2.9316498E2],"tree_param":{"num_deleted":"0","num_feature":"7","num_nodes":"19","size_leaf_vector":"1"}},{"base_weights":[3.1978677E-3,-6.996986E-1,7.174566E-2,-1.0170267E0,7.144766E-2,-1.1563741E0,7.295433E-2,-1.18613E0,7.1789294E-2,-1.1657633E0,-1.227814E0,-1.128102E0,-1.1999712E0,-1.1521405E0,-1.2562101E0,-6.41103E-2,-5.49612E-2,-5.4516833E-2,-6.1115652E-2,-6.1472643E-2,-5.057503E-2,-6.796679E-2,-5.863742E-2],"categories":[],"categories_nodes":[],"categories_segments":[],"categories_sizes":[],"default_left":[0,0,0,0,0,0,0,0,0,0,0,0,0,0,0,0,0,0,0,0,0,0,0],"id":10,"left_children":[1,3,-1,5,-1,7,-1,9,-1,11,13,15,17,19,21,-1,-1,-1,-1,-1,-1,-1,-1],"loss_changes":[1.4535944E4,6.5454966E3,0E0,2.910961E3,0E0,6.174502E2,0E0,5.2695312E0,0E0,5.5029297E0,4.07959E0,9.937744E0,5.459961E0,6.5180664E0,1.4406982E1,0E0,0E0,0E0,0E0,0E0,0E0,0E0,0E0],"parents":[2147483647,0,0,1,1,3,3,5,5,7,7,9,9,10,10,11,11,12,12,13,13,14,14],"right_children":[2,4,-1,6,-1,8,-1,10,-1,12,14,16,18,20,22,-1,-1,-1,-1,-1,-1,-1,-1],"split_conditions":[2E0,3E0,7.174566E-2,9E0,7.144766E-2,1E0,7.295433E-2,6E0,7.1789294E-2,2.017E3,2.014E3,1E0,1E0,8E0,2.019E3,-6.41103E-2,-5.49612E-2,-5.4516833E-2,-6.1115652E-2,-6.1472643E-2,-5.057503E-2,-6.796679E-2,-5.863742E-2],"split_indices":[2,3,0,6,0,4,0,6,0,5,5,6,6,6,5,0,0,0,0,0,0,0,0],"split_type":[0,0,0,0,0,0,0,0,0,0,0,0,0,0,0,0,0,0,0,0,0,0,0],"sum_hessian":[1.444226E4,9.686978E3,4.755282E3,8.430696E3,1.256281E3,7.9820273E3,4.4866904E2,7.891976E3,9.0051216E1,5.3210664E3,2.5709097E3,2.5488643E3,2.7722021E3,7.128354E2,1.8580743E3,3.9540854E2,2.1534558E3,4.777278E2,2.2944744E3,4.5498163E2,2.5785376E2,8.242892E2,1.033785E3],"tree_param":{"num_deleted":"0","num_feature":"7","num_nodes":"23","size_leaf_vector":"1"}},{"base_weights":[-1.1896078E-3,-1.4105012E0,1.4307413E0,-7.110096E-2,7.472342E-2,1.4628193E0,6.998775E-2,1.5570217E0,7.121541E-2,8.179382E-2,7.143337E-2],"categories":[],"categories_nodes":[],"categories_segments":[],"categories_sizes":[],"default_left":[0,0,0,0,0,0,0,0,0,0,0],"id":11,"left_children":[1,3,5,-1,-1,7,-1,9,-1,-1,-1],"loss_changes":[2.834261E4,2.3895508E2,4.8779297E0,0E0,0E0,1.0119629E1,0E0,7.5422363E0,0E0,0E0,0E0],"parents":[2147483647,0,0,1,1,2,2,5,5,7,7],"right_children":[2,4,6,-1,-1,8,-1,10,-1,-1,-1],"split_conditions":[8E1,5E0,3E0,-7.110096E-2,7.472342E-2,5E0,6.998775E-2,9E0,7.121541E-2,8.179382E-2,7.143337E-2],"split_indices":[1,0,3,0,0,0,0,6,0,0,0],"split_type":[0,0,0,0,0,0,0,0,0,0,0],"sum_hessian":[1.4042645E4,7.0772266E3,6.9654175E3,7.0497856E3,2.7441113E1,3.39971E3,3.5657075E3,9.7509595E2,2.424614E3,5.967416E2,3.7835434E2],"tree_param":{"num_deleted":"0","num_feature":"7","num_nodes":"11","size_leaf_vector":"1"}},{"base_weights":[3.5871272E-3,-1.3817507E0,1.403236E0,-6.939808E-2,6.45588E-2,1.4537115E0,6.882503E-2,1.5295917E0,6.8607844E-2,1.6023479E0,6.984284E-2,8.1430145E-2,6.8699695E-2],"categories":[],"categories_nodes":[],"categories_segments":[],"categories_sizes":[],"default_left":[0,0,0,0,0,0,0,0,0,0,0,0,0],"id":12,"left_children":[1,3,5,-1,-1,7,-1,9,-1,11,-1,-1,-1],"loss_changes":[2.653525E4,1.1597266E2,7.1845703E0,0E0,0E0,1.237793E1,0E0,9.380371E0,0E0,2.3808594E0,0E0,0E0,0E0],"parents":[2147483647,0,0,1,1,2,2,5,5,7,7,9,9],"right_children":[2,4,6,-1,-1,8,-1,10,-1,12,-1,-1,-1],"split_conditions":[8E1,2E0,2E0,-6.939808E-2,6.45588E-2,3E0,6.882503E-2,9E0,6.8607844E-2,1E0,6.984284E-2,8.1430145E-2,6.8699695E-2],"split_indices":[1,2,2,0,0,3,0,6,0,4,0,0,0],"split_type":[0,0,0,0,0,0,0,0,0,0,0,0,0],"sum_hessian":[1.3683112E4,6.8767188E3,6.806393E3,6.8612563E3,1.5462587E1,2.3383352E3,4.468058E3,1.2021099E3,1.1362253E3,7.693391E2,4.3277072E2,6.84506E2,8.483309E1],"tree_param":{"num_deleted":"0","num_feature":"7","num_nodes":"13","size_leaf_vector":"1"}},{"base_weights":[1.9304389E-3,-1.3552006E0,1.3758309E0,-6.83339E-2,7.33632E-2,1.4209747E0,6.757753E-2,1.5434616E0,6.873274E-2,1.7369473E0,6.722399E-2,9.402057E-2,7.1687706E-2],"categories":[],"categories_nodes":[],"categories_segments":[],"categories_sizes":[],"default_left":[0,0,0,0,0,0,0,0,0,0,0,0,0],"id":13,"left_children":[1,3,5,-1,-1,7,-1,9,-1,11,-1,-1,-1],"loss_changes":[2.4685162E4,2.1775879E2,5.2910156E0,0E0,0E0,1.0822266E1,0E0,2.1453003E1,0E0,1.0781006E1,0E0,0E0,0E0],"parents":[2147483647,0,0,1,1,2,2,5,5,7,7,9,9],"right_children":[2,4,6,-1,-1,8,-1,10,-1,12,-1,-1,-1],"split_conditions":[8E1,5E0,2E0,-6.83339E-2,7.33632E-2,5E0,6.757753E-2,3E0,6.873274E-2,9E0,6.722399E-2,9.402057E-2,7.1687706E-2],"split_indices":[1,0,2,0,0,0,0,3,0,6,0,0,0],"split_type":[0,0,0,0,0,0,0,0,0,0,0,0,0],"sum_hessian":[1.3237114E4,6.659204E3,6.57791E3,6.632748E3,2.6455885E1,2.280428E3,4.2974824E3,6.168718E2,1.6635562E3,3.0883643E2,3.0803537E2,2.0610854E2,1.0272789E2],"tree_param":{"num_deleted":"0","num_feature":"7","num_nodes":"13","size_leaf_vector":"1"}},{"base_weights":[3.1793453E-3,-1.3311374E0,1.3499252E0,-6.71228E-2,7.162011E-2,1.3903291E0,6.643716E-2,1.4934793E0,6.749358E-2,1.5741953E0,6.79588E-2,8.012986E-2,6.60148E-2],"categories":[],"categories_nodes":[],"categories_segments":[],"categories_sizes":[],"default_left":[0,0,0,0,0,0,0,0,0,0,0,0,0],"id":14,"left_children":[1,3,5,-1,-1,7,-1,9,-1,11,-1,-1,-1],"loss_changes":[2.306803E4,2.0362012E2,3.6201172E0,0E0,0E0,7.064453E0,0E0,4.4033203E0,0E0,5.570679E-1,0E0,0E0,0E0],"parents":[2147483647,0,0,1,1,2,2,5,5,7,7,9,9],"right_children":[2,4,6,-1,-1,8,-1,10,-1,12,-1,-1,-1],"split_conditions":[8E1,5E0,2E0,-6.71228E-2,7.162011E-2,5E0,6.643716E-2,9E0,6.749358E-2,1E0,6.79588E-2,8.012986E-2,6.60148E-2],"split_indices":[1,0,2,0,0,0,0,6,0,4,0,0,0],"split_type":[0,0,0,0,0,0,0,0,0,0,0,0,0],"sum_hessian":[1.2835069E4,6.4472915E3,6.3877783E3,6.4215054E3,2.57861E1,2.1747927E3,4.212986E3,6.025709E2,1.5722217E3,3.6967548E2,2.3289546E2,3.2770538E2,4.1970108E1],"tree_param":{"num_deleted":"0","num_feature":"7","num_nodes":"13","size_leaf_vector":"1"}},{"base_weights":[-3.8374495E-3,-1.3090551E0,1.328184E0,-6.574453E-2,6.082846E-2,1.3661357E0,6.538115E-2,1.4243104E0,6.5123945E-2,7.1923554E-2,6.492366E-2],"categories":[],"categories_nodes":[],"categories_segments":[],"categories_sizes":[],"default_left":[0,0,0,0,0,0,0,0,0,0,0],"id":15,"left_children":[1,3,5,-1,-1,7,-1,9,-1,-1,-1],"loss_changes":[2.1531943E4,9.3791016E1,2.9980469E0,0E0,0E0,6.037842E0,0E0,9.790039E-2,0E0,0E0,0E0],"parents":[2147483647,0,0,1,1,2,2,5,5,7,7],"right_children":[2,4,6,-1,-1,8,-1,10,-1,-1,-1],"split_conditions":[8E1,2E0,2E0,-6.574453E-2,6.082846E-2,3E0,6.538115E-2,1E0,6.5123945E-2,7.1923554E-2,6.492366E-2],"split_indices":[1,2,2,0,0,3,0,4,0,0,0],"split_type":[0,0,0,0,0,0,0,0,0,0,0],"sum_hessian":[1.2382801E4,6.2543364E3,6.128465E3,6.2403975E3,1.3938879E1,2.1305193E3,3.9979456E3,1.102025E3,1.0284944E3,9.81181E2,1.20843956E2],"tree_param":{"num_deleted":"0","num_feature":"7","num_nodes":"11","size_leaf_vector":"1"}},{"base_weights":[9.103119E-4,-7.2601056E-1,6.468546E-2,-1.0624127E0,6.4752094E-2,-1.1653262E0,6.395599E-2,-1.20634E0,6.763603E-2,-6.4527564E-2,-1.1803541E0,-1.1021729E0,-1.2007164E0,-6.472286E-2,-5.2667707E-2,-6.355307E-2,-5.931849E-2],"categories":[],"categories_nodes":[],"categories_segments":[],"categories_sizes":[],"default_left":[0,0,0,0,0,0,0,0,0,0,0,0,0,0,0,0,0],"id":16,"left_children":[1,3,-1,5,-1,7,-1,9,-1,-1,11,13,15,-1,-1,-1,-1],"loss_changes":[1.1271696E4,5.2210977E3,0E0,1.5876758E3,0E0,6.5285547E2,0E0,1.2055664E1,0E0,0E0,6.2441406E0,7.9714355E0,2.2871094E0,0E0,0E0,0E0,0E0],"parents":[2147483647,0,0,1,1,3,3,5,5,7,7,10,10,11,11,12,12],"right_children":[2,4,-1,6,-1,8,-1,10,-1,-1,12,14,16,-1,-1,-1,-1],"split_conditions":[5E0,2E0,6.468546E-2,3E0,6.4752094E-2,9E0,6.395599E-2,2E0,6.763603E-2,-6.4527564E-2,2.013E3,2E0,2.015E3,-6.472286E-2,-5.2667707E-2,-6.355307E-2,-5.931849E-2],"split_indices":[0,2,0,3,0,6,0,0,0,0,5,6,5,0,0,0,0],"split_type":[0,0,0,0,0,0,0,0,0,0,0,0,0,0,0,0,0],"sum_hessian":[1.1992196E4,7.6763447E3,4.3158516E3,6.5813584E3,1.0949861E3,6.3047583E3,2.7660016E2,6.204225E3,1.0053302E2,1.4515562E3,4.752669E3,9.9344403E2,3.759225E3,1.9598651E2,7.974575E2,6.219659E2,3.137259E3],"tree_param":{"num_deleted":"0","num_feature":"7","num_nodes":"17","size_leaf_vector":"1"}},{"base_weights":[5.5198944E-3,-6.9695616E-1,6.375187E-2,-1.03009E0,6.384777E-2,-1.1364063E0,6.30854E-2,-1.1753685E0,6.64029E-2,-1.1840547E0,6.3883565E-2,-6.361579E-2,-1.15686E0,-6.0152162E-2,-5.7166707E-2],"categories":[],"categories_nodes":[],"categories_segments":[],"categories_sizes":[],"default_left":[0,0,0,0,0,0,0,0,0,0,0,0,0,0,0],"id":17,"left_children":[1,3,-1,5,-1,7,-1,9,-1,11,-1,-1,13,-1,-1],"loss_changes":[1.0326673E4,4.9032803E3,0E0,1.5556406E3,0E0,5.869507E2,0E0,1.2940039E2,0E0,1.2885742E1,0E0,0E0,1.4882812E0,0E0,0E0],"parents":[2147483647,0,0,1,1,3,3,5,5,7,7,9,9,12,12],"right_children":[2,4,-1,6,-1,8,-1,10,-1,12,-1,-1,14,-1,-1],"split_conditions":[5E0,2E0,6.375187E-2,3E0,6.384777E-2,9E0,6.30854E-2,1E0,6.64029E-2,2E0,6.3883565E-2,-6.361579E-2,2E0,-6.0152162E-2,-5.7166707E-2],"split_indices":[0,2,0,3,0,6,0,4,0,0,0,0,6,0,0],"split_type":[0,0,0,0,0,0,0,0,0,0,0,0,0,0,0],"sum_hessian":[1.1577514E4,7.453589E3,4.123925E3,6.377711E3,1.0758779E3,6.095448E3,2.82263E2,6.0010957E3,9.43522E1,5.980437E3,2.0659113E1,1.3978593E3,4.5825776E3,1.0181698E3,3.5644077E3],"tree_param":{"num_deleted":"0","num_feature":"7","num_nodes":"15","size_leaf_vector":"1"}},{"base_weights":[-1.020176E-2,-1.2537154E0,1.2773467E0,-6.330102E-2,6.749663E-2,1.3261766E0,6.287245E-2,6.8428434E-2,6.290909E-2],"categories":[],"categories_nodes":[],"categories_segments":[],"categories_sizes":[],"default_left":[0,0,0,0,0,0,0,0,0],"id":18,"left_children":[1,3,5,-1,-1,7,-1,-1,-1],"loss_changes":[1.7758674E4,1.8247656E2,3.6259766E0,0E0,0E0,2.772705E0,0E0,0E0,0E0],"parents":[2147483647,0,0,1,1,2,2,5,5],"right_children":[2,4,6,-1,-1,8,-1,-1,-1],"split_conditions":[8E1,5E0,5E0,-6.330102E-2,6.749663E-2,9E0,6.287245E-2,6.8428434E-2,6.290909E-2],"split_indices":[1,0,0,0,0,6,0,0,0],"split_type":[0,0,0,0,0,0,0,0,0],"sum_hessian":[1.1089655E4,5.6413086E3,5.448346E3,5.615284E3,2.6024576E1,1.558378E3,3.8899685E3,9.4813007E2,6.10248E2],"tree_param":{"num_deleted":"0","num_feature":"7","num_nodes":"9","size_leaf_vector":"1"}},{"base_weights":[2.2674473E-3,-1.2374673E0,1.260365E0,-6.2484443E-2,6.624863E-2,1.3012899E0,6.1885215E-2,1.4215713E0,6.2620156E-2,7.206701E-2,6.1846483E-2],"categories":[],"categories_nodes":[],"categories_segments":[],"categories_sizes":[],"default_left":[0,0,0,0,0,0,0,0,0,0,0],"id":19,"left_children":[1,3,5,-1,-1,7,-1,9,-1,-1,-1],"loss_changes":[1.6793465E4,1.7149121E2,3.3466797E0,0E0,0E0,9.303711E0,0E0,1.7858887E-1,0E0,0E0,0E0],"parents":[2147483647,0,0,1,1,2,2,5,5,7,7],"right_children":[2,4,6,-1,-1,8,-1,10,-1,-1,-1],"split_conditions":[8E1,5E0,2E0,-6.2484443E-2,6.624863E-2,5E0,6.1885215E-2,1E0,6.2620156E-2,7.206701E-2,6.1846483E-2],"split_indices":[1,0,2,0,0,0,0,4,0,0,0],"split_type":[0,0,0,0,0,0,0,0,0,0,0],"sum_hessian":[1.0765062E4,5.422109E3,5.342953E3,5.396881E3,2.522814E1,1.8840199E3,3.458933E3,5.3633704E2,1.3476829E3,4.78319E2,5.8018055E1],"tree_param":{"num_deleted":"0","num_feature":"7","num_nodes":"11","size_leaf_vector":"1"}},{"base_weights":[1.0276531E-3,-1.2264725E0,1.2440813E0,-6.1728325E-2,6.3802324E-2,1.2863786E0,6.1352402E-2,6.616742E-2,6.1355736E-2],"categories":[],"categories_nodes":[],"categories_segments":[],"categories_sizes":[],"default_left":[0,0,0,0,0,0,0,0,0],"id":20,"left_children":[1,3,5,-1,-1,7,-1,-1,-1],"loss_changes":[1.5795161E4,1.0707471E2,2.1274414E0,0E0,0E0,1.5656738E0,0E0,0E0,0E0],"parents":[2147483647,0,0,1,1,2,2,5,5],"right_children":[2,4,6,-1,-1,8,-1,-1,-1],"split_conditions":[8E1,5E0,5E0,-6.1728325E-2,6.3802324E-2,9E0,6.1352402E-2,6.616742E-2,6.1355736E-2],"split_indices":[1,0,0,0,0,6,0,0,0],"split_type":[0,0,0,0,0,0,0,0,0],"sum_hessian":[1.0349724E4,5.2074473E3,5.1422764E3,5.1911636E3,1.6283289E1,1.4549004E3,3.687376E3,8.8284076E2,5.720597E2],"tree_param":{"num_deleted":"0","num_feature":"7","num_nodes":"9","size_leaf_vector":"1"}},{"base_weights":[-4.7780338E-4,-1.2124863E0,1.2301016E0,-6.0837604E-2,5.4193553E-2,1.2672336E0,6.048727E-2,1.3226099E0,6.027017E-2,6.881836E-2,6.0814526E-2],"categories":[],"categories_nodes":[],"categories_segments":[],"categories_sizes":[],"default_left":[0,0,0,0,0,0,0,0,0,0,0],"id":21,"left_children":[1,3,5,-1,-1,7,-1,9,-1,-1,-1],"loss_changes":[1.48781E4,5.054834E1,2.2080078E0,0E0,0E0,4.334961E0,0E0,3.4881592E0,0E0,0E0,0E0],"parents":[2147483647,0,0,1,1,2,2,5,5,7,7],"right_children":[2,4,6,-1,-1,8,-1,10,-1,-1,-1],"split_conditions":[8E1,2E0,2E0,-6.0837604E-2,5.4193553E-2,3E0,6.048727E-2,9E0,6.027017E-2,6.881836E-2,6.0814526E-2],"split_indices":[1,2,2,0,0,3,0,6,0,0,0],"split_type":[0,0,0,0,0,0,0,0,0,0,0],"sum_hessian":[9.973442E3,5.0246426E3,4.9488E3,5.0157954E3,8.847352E0,1.7306444E3,3.2181555E3,9.022127E2,8.2843164E2,5.912957E2,3.1091705E2],"tree_param":{"num_deleted":"0","num_feature":"7","num_nodes":"11","size_leaf_vector":"1"}},{"base_weights":[2.6574426E-3,-6.5947753E-1,6.006161E-2,-9.687864E-1,6.004786E-2,-1.0458453E0,6.056275E-2,-1.0612133E0,5.943417E-2,-5.9948575E-2,-1.0206915E0,-1.0119836E0,-5.7094242E-2,-5.102671E-2,-4.503567E-2],"categories":[],"categories_nodes":[],"categories_segments":[],"categories_sizes":[],"default_left":[0,0,0,0,0,0,0,0,0,0,0,0,0,0,0],"id":22,"left_children":[1,3,-1,5,-1,7,-1,9,-1,-1,11,13,-1,-1,-1],"loss_changes":[7.6481304E3,3.5733748E3,0E0,8.955371E2,0E0,1.7784131E2,0E0,2.7288086E1,0E0,0E0,3.0161133E0,2.5983887E0,0E0,0E0,0E0],"parents":[2147483647,0,0,1,1,3,3,5,5,7,7,10,10,11,11],"right_children":[2,4,-1,6,-1,8,-1,10,-1,-1,12,14,-1,-1,-1],"split_conditions":[5E0,2E0,6.006161E-2,9E0,6.004786E-2,1E0,6.056275E-2,2E0,5.943417E-2,-5.9948575E-2,2.024E3,2.023E3,-5.7094242E-2,-5.102671E-2,-4.503567E-2],"split_indices":[0,2,0,6,0,4,0,0,0,0,5,5,0,0,0],"split_type":[0,0,0,0,0,0,0,0,0,0,0,0,0,0,0],"sum_hessian":[9.63504E3,6.2066934E3,3.4283467E3,5.322306E3,8.843873E2,5.1411016E3,1.8120453E2,5.106507E3,3.4594757E1,1.1541715E3,3.9523352E3,3.696114E3,2.5622128E2,3.4247683E3,2.7134573E2],"tree_param":{"num_deleted":"0","num_feature":"7","num_nodes":"15","size_leaf_vector":"1"}},{"base_weights":[2.4296953E-3,-5.5722135E-1,5.92973E-2,-7.968069E-1,5.9263486E-2,-9.0693116E-1,5.959741E-2,-9.303101E-1,5.8886167E-2,-9.0723485E-1,-9.779983E-1,-8.845188E-1,-9.5382094E-1,-9.025633E-1,-1.0072265E0,-4.856911E-2,-4.2144E-2,-4.0476516E-2,-4.920075E-2,-4.899902E-2,-4.119606E-2,-5.5728015E-2,-4.612438E-2],"categories":[],"categories_nodes":[],"categories_segments":[],"categories_sizes":[],"default_left":[0,0,0,0,0,0,0,0,0,0,0,0,0,0,0,0,0,0,0,0,0,0,0],"id":23,"left_children":[1,3,-1,5,-1,7,-1,9,-1,11,13,15,17,19,21,-1,-1,-1,-1,-1,-1,-1,-1],"loss_changes":[6.1450854E3,2.6306235E3,0E0,1.2140037E3,0E0,2.5687646E2,0E0,4.824707E0,0E0,2.8725586E0,2.7944336E0,7.769287E0,4.162842E0,2.1071167E0,9.904907E0,0E0,0E0,0E0,0E0,0E0,0E0,0E0,0E0],"parents":[2147483647,0,0,1,1,3,3,5,5,7,7,9,9,10,10,11,11,12,12,13,13,14,14],"right_children":[2,4,-1,6,-1,8,-1,10,-1,12,14,16,18,20,22,-1,-1,-1,-1,-1,-1,-1,-1],"split_conditions":[2E0,3E0,5.92973E-2,9E0,5.9263486E-2,1E0,5.959741E-2,6E0,5.8886167E-2,2.02E3,2.014E3,2E0,1E0,2.012E3,2.019E3,-4.856911E-2,-4.2144E-2,-4.0476516E-2,-4.920075E-2,-4.899902E-2,-4.119606E-2,-5.5728015E-2,-4.612438E-2],"split_indices":[2,3,0,6,0,4,0,6,0,5,5,6,6,5,5,0,0,0,0,0,0,0,0],"split_type":[0,0,0,0,0,0,0,0,0,0,0,0,0,0,0,0,0,0,0,0,0,0,0],"sum_hessian":[9.275617E3,6.298001E3,2.9776157E3,5.537201E3,7.6080005E2,5.24719E3,2.9001126E2,5.189544E3,5.764576E1,3.5107825E3,1.6787617E3,2.3734458E3,1.1373365E3,4.7771274E2,1.2010491E3,7.6183734E2,1.6116085E3,2.0162535E2,9.357112E2,2.3495569E2,2.4275703E2,5.245191E2,6.765299E2],"tree_param":{"num_deleted":"0","num_feature":"7","num_nodes":"23","size_leaf_vector":"1"}},{"base_weights":[-2.6064327E-3,-1.1774098E0,1.2021172E0,-5.9388E-2,6.1823077E-2,1.2508833E0,5.9060045E-2,1.3158252E0,5.869597E-2,6.908496E-2,5.9184015E-2],"categories":[],"categories_nodes":[],"categories_segments":[],"categories_sizes":[],"default_left":[0,0,0,0,0,0,0,0,0,0,0],"id":24,"left_children":[1,3,5,-1,-1,7,-1,9,-1,-1,-1],"loss_changes":[1.2646568E4,1.1449512E2,3.0219727E0,0E0,0E0,4.98938E0,0E0,4.4643555E0,0E0,0E0,0E0],"parents":[2147483647,0,0,1,1,2,2,5,5,7,7],"right_children":[2,4,6,-1,-1,8,-1,10,-1,-1,-1],"split_conditions":[8E1,5E0,5E0,-5.9388E-2,6.1823077E-2,3E0,5.9060045E-2,9E0,5.869597E-2,6.908496E-2,5.9184015E-2],"split_indices":[1,0,0,0,0,3,0,6,0,0,0],"split_type":[0,0,0,0,0,0,0,0,0,0,0],"sum_hessian":[8.933525E3,4.5229395E3,4.410586E3,4.5041343E3,1.880492E1,1.3062548E3,3.1043313E3,6.9972974E2,6.06525E2,4.6064398E2,2.3908574E2],"tree_param":{"num_deleted":"0","num_feature":"7","num_nodes":"11","size_leaf_vector":"1"}},{"base_weights":[-3.0701568E-3,-6.3863647E-1,5.8566064E-2,-9.354594E-1,5.8352202E-2,-1.0249445E0,5.8265455E-2,-1.0608156E0,5.948056E-2,-5.8414377E-2,-1.0289941E0,-9.5900935E-1,-1.0472172E0,-5.8422595E-2,-4.5384716E-2,-5.4444443E-2,-5.031045E-2],"categories":[],"categories_nodes":[],"categories_segments":[],"categories_sizes":[],"default_left":[0,0,0,0,0,0,0,0,0,0,0,0,0,0,0,0,0],"id":25,"left_children":[1,3,-1,5,-1,7,-1,9,-1,-1,11,13,15,-1,-1,-1,-1],"loss_changes":[6.392575E3,2.979503E3,0E0,8.98479E2,0E0,3.6498047E2,0E0,1.4209473E1,0E0,0E0,3.4401855E0,6.805359E0,3.611084E0,0E0,0E0,0E0,0E0],"parents":[2147483647,0,0,1,1,3,3,5,5,7,7,10,10,11,11,12,12],"right_children":[2,4,-1,6,-1,8,-1,10,-1,-1,12,14,16,-1,-1,-1,-1],"split_conditions":[5E0,2E0,5.8566064E-2,3E0,5.8352202E-2,9E0,5.8265455E-2,2E0,5.948056E-2,-5.8414377E-2,2.013E3,2E0,2E0,-5.8422595E-2,-4.5384716E-2,-5.4444443E-2,-5.031045E-2],"split_indices":[0,2,0,3,0,6,0,0,0,0,5,6,3,0,0,0,0],"split_type":[0,0,0,0,0,0,0,0,0,0,0,0,0,0,0,0,0],"sum_hessian":[8.562499E3,5.5560757E3,3.0064238E3,4.772105E3,7.8397034E2,4.577627E3,1.9447824E2,4.505174E3,7.24532E1,1.0210469E3,3.4841267E3,7.3087976E2,2.753247E3,1.395473E2,5.9133246E2,1.3529049E3,1.400342E3],"tree_param":{"num_deleted":"0","num_feature":"7","num_nodes":"17","size_leaf_vector":"1"}},{"base_weights":[8.281364E-4,-1.1554012E0,1.1822287E0,-5.838899E-2,6.213903E-2,1.2299515E0,5.7775028E-2,1.3602141E0,5.8636993E-2,1.5058146E0,5.7764053E-2,8.126529E-2,5.8931407E-2],"categories":[],"categories_nodes":[],"categories_segments":[],"categories_sizes":[],"default_left":[0,0,0,0,0,0,0,0,0,0,0,0,0],"id":26,"left_children":[1,3,5,-1,-1,7,-1,9,-1,11,-1,-1,-1],"loss_changes":[1.1281312E4,1.25356445E2,3.7890625E0,0E0,0E0,9.218506E0,0E0,1.1286072E1,0E0,7.9334717E0,0E0,0E0,0E0],"parents":[2147483647,0,0,1,1,2,2,5,5,7,7,9,9],"right_children":[2,4,6,-1,-1,8,-1,10,-1,12,-1,-1,-1],"split_conditions":[8E1,5E0,2E0,-5.838899E-2,6.213903E-2,5E0,5.7775028E-2,3E0,5.8636993E-2,9E0,5.7764053E-2,8.126529E-2,5.8931407E-2],"split_indices":[1,0,2,0,0,0,0,3,0,6,0,0,0],"split_type":[0,0,0,0,0,0,0,0,0,0,0,0,0],"sum_hessian":[8.256828E3,4.1728794E3,4.0839492E3,4.1519614E3,2.0917793E1,1.4499878E3,2.6339614E3,4.355431E2,1.01444464E3,2.5092119E2,1.846219E2,1.808908E2,7.00304E1],"tree_param":{"num_deleted":"0","num_feature":"7","num_nodes":"13","size_leaf_vector":"1"}},{"base_weights":[-3.5477905E-3,-1.1521375E0,1.1726286E0,-5.791212E-2,5.6447644E-2,1.2179608E0,5.7340063E-2,1.3382124E0,5.8116507E-2,1.4169557E0,5.7733696E-2,7.2242916E-2,5.7014126E-2],"categories":[],"categories_nodes":[],"categories_segments":[],"categories_sizes":[],"default_left":[0,0,0,0,0,0,0,0,0,0,0,0,0],"id":27,"left_children":[1,3,5,-1,-1,7,-1,9,-1,11,-1,-1,-1],"loss_changes":[1.0686321E4,5.7040527E1,3.178711E0,0E0,0E0,7.8259277E0,0E0,4.678894E0,0E0,6.790161E-1,0E0,0E0,0E0],"parents":[2147483647,0,0,1,1,2,2,5,5,7,7,9,9],"right_children":[2,4,6,-1,-1,8,-1,10,-1,12,-1,-1,-1],"split_conditions":[8E1,5E0,2E0,-5.791212E-2,5.6447644E-2,5E0,5.7340063E-2,9E0,5.8116507E-2,1E0,5.7733696E-2,7.2242916E-2,5.7014126E-2],"split_indices":[1,0,2,0,0,0,0,6,0,4,0,0,0],"split_type":[0,0,0,0,0,0,0,0,0,0,0,0,0],"sum_hessian":[7.9082617E3,4.0010627E3,3.9071992E3,3.990874E3,1.0188573E1,1.4013658E3,2.5058333E3,4.3595282E2,9.65413E2,3.003666E2,1.3558623E2,2.6901416E2,3.1352427E1],"tree_param":{"num_deleted":"0","num_feature":"7","num_nodes":"13","size_leaf_vector":"1"}},{"base_weights":[2.6045744E-3,-6.1324465E-1,5.7205446E-2,-9.016436E-1,5.701573E-2,-9.909222E-1,5.680547E-2,-1.0268972E0,5.777737E-2,-5.7050314E-2,-9.932348E-1,-9.132539E-1,-1.0144267E0,-5.695918E-2,-4.2963788E-2,-4.8156682E-2,-5.205077E-2],"categories":[],"categories_nodes":[],"categories_segments":[],"categories_sizes":[],"default_left":[0,0,0,0,0,0,0,0,0,0,0,0,0,0,0,0,0],"id":28,"left_children":[1,3,-1,5,-1,7,-1,9,-1,-1,11,13,15,-1,-1,-1,-1],"loss_changes":[5.3278525E3,2.490647E3,0E0,7.70343E2,0E0,3.1401758E2,0E0,1.417334E1,0E0,0E0,4.30249E0,7.0236206E0,2.3110352E0,0E0,0E0,0E0,0E0],"parents":[2147483647,0,0,1,1,3,3,5,5,7,7,10,10,11,11,12,12],"right_children":[2,4,-1,6,-1,8,-1,10,-1,-1,12,14,16,-1,-1,-1,-1],"split_conditions":[5E0,2E0,5.7205446E-2,3E0,5.701573E-2,9E0,5.680547E-2,2E0,5.777737E-2,-5.7050314E-2,2.013E3,2E0,3E0,-5.695918E-2,-4.2963788E-2,-4.8156682E-2,-5.205077E-2],"split_indices":[0,2,0,3,0,6,0,0,0,0,5,6,6,0,0,0,0],"split_type":[0,0,0,0,0,0,0,0,0,0,0,0,0,0,0,0,0],"sum_hessian":[7.576798E3,4.9218755E3,2.654922E3,4.2271445E3,6.9473096E2,4.0502095E3,1.7693533E2,3.9839595E3,6.624982E1,9.0005316E2,3.0839065E3,6.5519836E2,2.428708E3,1.2247316E2,5.327252E2,8.41863E2,1.5868451E3],"tree_param":{"num_deleted":"0","num_feature":"7","num_nodes":"17","size_leaf_vector":"1"}},{"base_weights":[4.572994E-3,-1.130559E0,1.1578239E0,-5.7092298E-2,5.9988823E-2,1.2035868E0,5.6539156E-2,1.3295789E0,5.724261E-2,1.4107345E0,5.683703E-2,7.1837805E-2,5.6669433E-2],"categories":[],"categories_nodes":[],"categories_segments":[],"categories_sizes":[],"default_left":[0,0,0,0,0,0,0,0,0,0,0,0,0],"id":29,"left_children":[1,3,5,-1,-1,7,-1,9,-1,11,-1,-1,-1],"loss_changes":[9.600536E3,9.858154E1,3.1401367E0,0E0,0E0,8.361694E0,0E0,4.9454346E0,0E0,4.6722412E-1,0E0,0E0,0E0],"parents":[2147483647,0,0,1,1,2,2,5,5,7,7,9,9],"right_children":[2,4,6,-1,-1,8,-1,10,-1,12,-1,-1,-1],"split_conditions":[8E1,5E0,2E0,-5.7092298E-2,5.9988823E-2,5E0,5.6539156E-2,9E0,5.724261E-2,1E0,5.683703E-2,7.1837805E-2,5.6669433E-2],"split_indices":[1,0,2,0,0,0,0,6,0,4,0,0,0],"split_type":[0,0,0,0,0,0,0,0,0,0,0,0,0],"sum_hessian":[7.3317363E3,3.6949038E3,3.6368323E3,3.6776013E3,1.7302477E1,1.3346373E3,2.302195E3,4.1747388E2,9.1716345E2,2.893751E2,1.2809879E2,2.6073203E2,2.8643059E1],"tree_param":{"num_deleted":"0","num_feature":"7","num_nodes":"13","size_leaf_vector":"1"}},{"base_weights":[-4.9651586E-3,-1.1238639E0,1.1483325E0,-5.6696393E-2,5.7138246E-2,1.190851E0,5.6177206E-2,1.310925E0,5.6815263E-2,7.1733296E-2,5.595365E-2],"categories":[],"categories_nodes":[],"categories_segments":[],"categories_sizes":[],"default_left":[0,0,0,0,0,0,0,0,0,0,0],"id":30,"left_children":[1,3,5,-1,-1,7,-1,9,-1,-1,-1],"loss_changes":[8.989666E3,8.195508E1,2.2773438E0,0E0,0E0,6.6759033E0,0E0,7.4851685E0,0E0,0E0,0E0],"parents":[2147483647,0,0,1,1,2,2,5,5,7,7],"right_children":[2,4,6,-1,-1,8,-1,10,-1,-1,-1],"split_conditions":[8E1,5E0,2E0,-5.6696393E-2,5.7138246E-2,5E0,5.6177206E-2,3E0,5.6815263E-2,7.1733296E-2,5.595365E-2],"split_indices":[1,0,2,0,0,0,0,3,0,0,0],"split_type":[0,0,0,0,0,0,0,0,0,0,0],"sum_hessian":[6.964447E3,3.534954E3,3.429493E3,3.5198257E3,1.5128416E1,1.2457239E3,2.183769E3,3.8193015E2,8.637937E2,2.28241E2,1.5368915E2],"tree_param":{"num_deleted":"0","num_feature":"7","num_nodes":"11","size_leaf_vector":"1"}},{"base_weights":[3.4394357E-4,-5.990249E-1,5.6066334E-2,-8.7621814E-1,5.590088E-2,-9.6485406E-1,5.56247E-2,-9.7934455E-1,5.5436846E-2,-5.592651E-2,-9.39343E-1,-8.58382E-1,-9.6110004E-1,-3.669745E-2,-4.9492396E-2,-4.744029E-2,-5.4784443E-2],"categories":[],"categories_nodes":[],"categories_segments":[],"categories_sizes":[],"default_left":[0,0,0,0,0,0,0,0,0,0,0,0,0,0,0,0,0],"id":31,"left_children":[1,3,-1,5,-1,7,-1,9,-1,-1,11,13,15,-1,-1,-1,-1],"loss_changes":[4.51741E3,2.0861519E3,0E0,6.660845E2,0E0,1.0962378E2,0E0,1.8924316E1,0E0,0E0,4.0949707E0,9.104309E0,2.5889893E0,0E0,0E0,0E0,0E0],"parents":[2147483647,0,0,1,1,3,3,5,5,7,7,10,10,11,11,12,12],"right_children":[2,4,-1,6,-1,8,-1,10,-1,-1,12,14,16,-1,-1,-1,-1],"split_conditions":[5E0,2E0,5.6066334E-2,3E0,5.590088E-2,1E0,5.56247E-2,2E0,5.5436846E-2,-5.592651E-2,2.013E3,2E0,2.024E3,-3.669745E-2,-4.9492396E-2,-4.744029E-2,-5.4784443E-2],"split_indices":[0,2,0,3,0,4,0,0,0,0,5,3,5,0,0,0,0],"split_type":[0,0,0,0,0,0,0,0,0,0,0,0,0,0,0,0,0],"sum_hessian":[6.7215166E3,4.38005E3,2.3414666E3,3.7716567E3,6.0839325E2,3.6112212E3,1.6043546E2,3.5866848E3,2.4536518E1,7.946693E2,2.7920154E3,5.999548E2,2.1920605E3,3.1160364E2,2.8835117E2,2.0159594E3,1.7610132E2],"tree_param":{"num_deleted":"0","num_feature":"7","num_nodes":"17","size_leaf_vector":"1"}},{"base_weights":[-5.0404137E-3,-1.1082888E0,1.135175E0,-5.6023087E-2,5.756898E-2,1.1826543E0,5.57167E-2,1.2395657E0,5.5395093E-2,6.4968966E-2,5.5788238E-2],"categories":[],"categories_nodes":[],"categories_segments":[],"categories_sizes":[],"default_left":[0,0,0,0,0,0,0,0,0,0,0],"id":32,"left_children":[1,3,5,-1,-1,7,-1,9,-1,-1,-1],"loss_changes":[8.0534546E3,9.0791504E1,1.7971191E0,0E0,0E0,2.6430664E0,0E0,2.4569702E0,0E0,0E0,0E0],"parents":[2147483647,0,0,1,1,2,2,5,5,7,7],"right_children":[2,4,6,-1,-1,8,-1,10,-1,-1,-1],"split_conditions":[8E1,5E0,5E0,-5.6023087E-2,5.756898E-2,3E0,5.57167E-2,9E0,5.5395093E-2,6.4968966E-2,5.5788238E-2],"split_indices":[1,0,0,0,0,3,0,6,0,0,0],"split_type":[0,0,0,0,0,0,0,0,0,0,0],"sum_hessian":[6.4000933E3,3.2527903E3,3.1473032E3,3.2358625E3,1.6927565E1,9.430741E2,2.2042292E3,5.265854E2,4.1648868E2,3.486444E2,1.7794098E2],"tree_param":{"num_deleted":"0","num_feature":"7","num_nodes":"11","size_leaf_vector":"1"}},{"base_weights":[3.3774339E-3,-5.827328E-1,5.5427637E-2,-7.73666E-1,5.509692E-2,-8.6492044E-1,5.5516876E-2,-8.794419E-1,5.4472882E-2,-5.5285454E-2,-8.1879234E-1,-8.071574E-1,-4.951774E-2,-4.088571E-2,-3.362569E-2],"categories":[],"categories_nodes":[],"categories_segments":[],"categories_sizes":[],"default_left":[0,0,0,0,0,0,0,0,0,0,0,0,0,0,0],"id":33,"left_children":[1,3,-1,5,-1,7,-1,9,-1,-1,11,13,-1,-1,-1],"loss_changes":[4.0147827E3,1.3036078E3,0E0,6.2648706E2,0E0,9.9463135E1,0E0,4.6381836E1,0E0,0E0,4.6326904E0,3.0800781E0,0E0,0E0,0E0],"parents":[2147483647,0,0,1,1,3,3,5,5,7,7,10,10,11,11],"right_children":[2,4,-1,6,-1,8,-1,10,-1,-1,12,14,-1,-1,-1],"split_conditions":[5E0,3E0,5.5427637E-2,9E0,5.509692E-2,1E0,5.5516876E-2,2E0,5.4472882E-2,-5.5285454E-2,2.024E3,2.023E3,-4.951774E-2,-4.088571E-2,-3.362569E-2],"split_indices":[0,3,0,6,0,4,0,0,0,0,5,5,0,0,0],"split_type":[0,0,0,0,0,0,0,0,0,0,0,0,0,0,0],"sum_hessian":[6.1960024E3,4.049104E3,2.1468982E3,3.6373982E3,4.1170593E2,3.4698708E3,1.6752724E2,3.444825E3,2.5045906E1,7.245384E2,2.7202866E3,2.5528625E3,1.6742406E2,2.3625535E3,1.9030899E2],"tree_param":{"num_deleted":"0","num_feature":"7","num_nodes":"15","size_leaf_vector":"1"}},{"base_weights":[-2.1620651E-3,-1.0978756E0,1.127729E0,-5.5077035E-2,4.57427E-2,1.1549435E0,5.488546E-2,5.9075058E-2,5.497666E-2],"categories":[],"categories_nodes":[],"categories_segments":[],"categories_sizes":[],"default_left":[0,0,0,0,0,0,0,0,0],"id":34,"left_children":[1,3,5,-1,-1,7,-1,-1,-1],"loss_changes":[7.3506177E3,2.3243652E1,1.1201172E0,0E0,0E0,9.289551E-1,0E0,0E0,0E0],"parents":[2147483647,0,0,1,1,2,2,5,5],"right_children":[2,4,6,-1,-1,8,-1,-1,-1],"split_conditions":[8E1,3E0,3E0,-5.5077035E-2,4.57427E-2,9E0,5.488546E-2,5.9075058E-2,5.497666E-2],"split_indices":[1,3,3,0,0,6,0,0,0],"split_type":[0,0,0,0,0,0,0,0,0],"sum_hessian":[5.9353174E3,3.013246E3,2.9220713E3,3.008221E3,5.0251026E0,1.5129945E3,1.4090768E3,1.00904504E3,5.0394946E2],"tree_param":{"num_deleted":"0","num_feature":"7","num_nodes":"9","size_leaf_vector":"1"}},{"base_weights":[-2.003555E-3,-1.0923289E0,1.1189144E0,-1.0950719E0,4.282726E-2,1.1432291E0,5.4620054E-2,-5.4803576E-2,3.1302065E-2,5.842821E-2,5.4696824E-2],"categories":[],"categories_nodes":[],"categories_segments":[],"categories_sizes":[],"default_left":[0,0,0,0,0,0,0,0,0,0,0],"id":35,"left_children":[1,3,5,7,-1,9,-1,-1,-1,-1,-1],"loss_changes":[6.9780483E3,1.6409668E1,5.6640625E-1,5.6591797E0,0E0,5.2856445E-1,0E0,0E0,0E0,0E0,0E0],"parents":[2147483647,0,0,1,1,2,2,3,3,5,5],"right_children":[2,4,6,8,-1,10,-1,-1,-1,-1,-1],"split_conditions":[8E1,3E0,3E0,9E0,4.282726E-2,9E0,5.4620054E-2,-5.4803576E-2,3.1302065E-2,5.842821E-2,5.4696824E-2],"split_indices":[1,3,3,6,0,6,0,0,0,0,0],"split_type":[0,0,0,0,0,0,0,0,0,0,0],"sum_hessian":[5.7075786E3,2.8932844E3,2.8142942E3,2.8896555E3,3.628928E0,1.446044E3,1.3682501E3,2.8883413E3,1.3142275E0,9.4013464E2,5.0590936E2],"tree_param":{"num_deleted":"0","num_feature":"7","num_nodes":"11","size_leaf_vector":"1"}},{"base_weights":[4.786305E-4,-1.0866376E0,1.1143192E0,-5.487725E-2,5.560651E-2,1.1639395E0,5.4562803E-2,1.2648134E0,5.4561604E-2,6.65706E-2,5.4644704E-2],"categories":[],"categories_nodes":[],"categories_segments":[],"categories_sizes":[],"default_left":[0,0,0,0,0,0,0,0,0,0,0],"id":36,"left_children":[1,3,5,-1,-1,7,-1,9,-1,-1,-1],"loss_changes":[6.6011396E3,6.738672E1,1.8115234E0,0E0,0E0,4.776123E0,0E0,2.4985352E0,0E0,0E0,0E0],"parents":[2147483647,0,0,1,1,2,2,5,5,7,7],"right_children":[2,4,6,-1,-1,8,-1,10,-1,-1,-1],"split_conditions":[8E1,5E0,5E0,-5.487725E-2,5.560651E-2,2E0,5.4562803E-2,9E0,5.4561604E-2,6.65706E-2,5.4644704E-2],"split_indices":[1,0,0,0,0,2,0,6,0,0,0],"split_type":[0,0,0,0,0,0,0,0,0,0,0],"sum_hessian":[5.449549E3,2.7578716E3,2.6916775E3,2.7447563E3,1.3115129E1,8.38401E2,1.8532765E3,3.4431055E2,4.9409045E2,2.4331152E2,1.0099903E2],"tree_param":{"num_deleted":"0","num_feature":"7","num_nodes":"11","size_leaf_vector":"1"}},{"base_weights":[-2.3793466E-3,-1.079841E0,1.1079206E0,-5.46161E-2,5.6891378E-2,1.1551796E0,5.4318726E-2,1.2498336E0,5.4315325E-2,6.735061E-2,5.3810235E-2],"categories":[],"categories_nodes":[],"categories_segments":[],"categories_sizes":[],"default_left":[0,0,0,0,0,0,0,0,0,0,0],"id":37,"left_children":[1,3,5,-1,-1,7,-1,9,-1,-1,-1],"loss_changes":[6.230418E3,7.440039E1,1.3566895E0,0E0,0E0,3.7755127E0,0E0,4.033966E0,0E0,0E0,0E0],"parents":[2147483647,0,0,1,1,2,2,5,5,7,7],"right_children":[2,4,6,-1,-1,8,-1,10,-1,-1,-1],"split_conditions":[8E1,5E0,5E0,-5.46161E-2,5.6891378E-2,2E0,5.4318726E-2,3E0,5.4315325E-2,6.735061E-2,5.3810235E-2],"split_indices":[1,0,0,0,0,2,0,3,0,0,0],"split_type":[0,0,0,0,0,0,0,0,0,0,0],"sum_hessian":[5.2060483E3,2.6421094E3,2.5639387E3,2.6278274E3,1.4281892E1,7.8641254E2,1.7775262E3,3.2399344E2,4.624191E2,2.033963E2,1.2059712E2],"tree_param":{"num_deleted":"0","num_feature":"7","num_nodes":"11","size_leaf_vector":"1"}},{"base_weights":[-2.229985E-3,-1.0765148E0,1.102578E0,-5.4368068E-2,5.4283943E-2,1.1463233E0,5.4083675E-2,1.2402762E0,5.408969E-2,6.470201E-2,5.3939093E-2],"categories":[],"categories_nodes":[],"categories_segments":[],"categories_sizes":[],"default_left":[0,0,0,0,0,0,0,0,0,0,0],"id":38,"left_children":[1,3,5,-1,-1,7,-1,9,-1,-1,-1],"loss_changes":[5.9004106E3,6.0292236E1,1.0012207E0,0E0,0E0,3.3613892E0,0E0,1.287323E0,0E0,0E0,0E0],"parents":[2147483647,0,0,1,1,2,2,5,5,7,7],"right_children":[2,4,6,-1,-1,8,-1,10,-1,-1,-1],"split_conditions":[8E1,5E0,5E0,-5.4368068E-2,5.4283943E-2,2E0,5.4083675E-2,9E0,5.408969E-2,6.470201E-2,5.3939093E-2],"split_indices":[1,0,0,0,0,2,0,6,0,0,0],"split_type":[0,0,0,0,0,0,0,0,0,0,0],"sum_hessian":[4.9693687E3,2.519501E3,2.4498677E3,2.5074197E3,1.2081248E1,7.7475586E2,1.6751118E3,3.0803986E2,4.6671597E2,2.2584091E2,8.219895E1],"tree_param":{"num_deleted":"0","num_feature":"7","num_nodes":"11","size_leaf_vector":"1"}},{"base_weights":[-1.5282579E-3,-1.0728554E0,1.0972145E0,-5.3874563E-2,4.511849E-2,1.1324524E0,5.377194E-2,1.17459E0,5.36035E-2,6.063764E-2,5.3674947E-2],"categories":[],"categories_nodes":[],"categories_segments":[],"categories_sizes":[],"default_left":[0,0,0,0,0,0,0,0,0,0,0],"id":39,"left_children":[1,3,5,-1,-1,7,-1,9,-1,-1,-1],"loss_changes":[5.583086E3,2.2962646E1,5.786133E-1,0E0,0E0,9.682617E-1,0E0,6.470947E-1,0E0,0E0,0E0],"parents":[2147483647,0,0,1,1,2,2,5,5,7,7],"right_children":[2,4,6,-1,-1,8,-1,10,-1,-1,-1],"split_conditions":[8E1,2E0,2E0,-5.3874563E-2,4.511849E-2,3E0,5.377194E-2,9E0,5.36035E-2,6.063764E-2,5.3674947E-2],"split_indices":[1,2,2,0,0,3,0,6,0,0,0],"split_type":[0,0,0,0,0,0,0,0,0,0,0],"sum_hessian":[4.7410337E3,2.4004768E3,2.3405571E3,2.3953093E3,5.1673956E0,8.744686E2,1.4660885E3,5.0417746E2,3.702912E2,3.580234E2,1.4615404E2],"tree_param":{"num_deleted":"0","num_feature":"7","num_nodes":"11","size_leaf_vector":"1"}},{"base_weights":[-4.8300875E-3,-1.0642385E0,1.0914038E0,-5.349685E-2,4.6258535E-2,1.123964E0,5.3566255E-2,5.8208447E-2,5.340379E-2],"categories":[],"categories_nodes":[],"categories_segments":[],"categories_sizes":[],"default_left":[0,0,0,0,0,0,0,0,0],"id":40,"left_children":[1,3,5,-1,-1,7,-1,-1,-1],"loss_changes":[5.267947E3,2.714038E1,2.529297E-1,0E0,0E0,6.2158203E-1,0E0,0E0,0E0],"parents":[2147483647,0,0,1,1,2,2,5,5],"right_children":[2,4,6,-1,-1,8,-1,-1,-1],"split_conditions":[8E1,2E0,2E0,-5.349685E-2,4.6258535E-2,3E0,5.3566255E-2,5.8208447E-2,5.340379E-2],"split_indices":[1,2,2,0,0,3,0,0,0],"split_type":[0,0,0,0,0,0,0,0,0],"sum_hessian":[4.534017E3,2.3057512E3,2.2282656E3,2.2996265E3,6.124854E0,8.289882E2,1.3992776E3,4.7060995E2,3.5837827E2],"tree_param":{"num_deleted":"0","num_feature":"7","num_nodes":"9","size_leaf_vector":"1"}},{"base_weights":[2.4062374E-3,-1.0603138E0,1.0876926E0,-5.3709842E-2,5.6717124E-2,1.1272992E0,5.3457607E-2,5.8523845E-2,5.3180605E-2],"categories":[],"categories_nodes":[],"categories_segments":[],"categories_sizes":[],"default_left":[0,0,0,0,0,0,0,0,0],"id":41,"left_children":[1,3,5,-1,-1,7,-1,-1,-1],"loss_changes":[5.029334E3,6.834668E1,3.7890625E-1,0E0,0E0,5.961914E-1,0E0,0E0,0E0],"parents":[2147483647,0,0,1,1,2,2,5,5],"right_children":[2,4,6,-1,-1,8,-1,-1,-1],"split_conditions":[8E1,5E0,5E0,-5.3709842E-2,5.6717124E-2,3E0,5.3457607E-2,5.8523845E-2,5.3180605E-2],"split_indices":[1,0,0,0,0,3,0,0,0],"split_type":[0,0,0,0,0,0,0,0,0],"sum_hessian":[4.35861E3,2.2022117E3,2.1563984E3,2.1888757E3,1.3335845E1,6.685086E2,1.4878898E3,3.8804684E2,2.8046176E2],"tree_param":{"num_deleted":"0","num_feature":"7","num_nodes":"9","size_leaf_vector":"1"}},{"base_weights":[1.1397954E-2,-1.0564E0,1.0838251E0,-5.3513546E-2,5.603989E-2,1.1215665E0,5.3277113E-2,5.8124162E-2,5.300195E-2],"categories":[],"categories_nodes":[],"categories_segments":[],"categories_sizes":[],"default_left":[0,0,0,0,0,0,0,0,0],"id":42,"left_children":[1,3,5,-1,-1,7,-1,-1,-1],"loss_changes":[4.788335E3,6.447632E1,2.446289E-1,0E0,0E0,4.3371582E-1,0E0,0E0,0E0],"parents":[2147483647,0,0,1,1,2,2,5,5],"right_children":[2,4,6,-1,-1,8,-1,-1,-1],"split_conditions":[8E1,5E0,5E0,-5.3513546E-2,5.603989E-2,3E0,5.3277113E-2,5.8124162E-2,5.300195E-2],"split_indices":[1,0,0,0,0,3,0,0,0],"split_type":[0,0,0,0,0,0,0,0,0],"sum_hessian":[4.1794575E3,2.0942563E3,2.0852012E3,2.0815034E3,1.2752897E1,6.607902E2,1.4244109E3,3.8612045E2,2.7466977E2],"tree_param":{"num_deleted":"0","num_feature":"7","num_nodes":"9","size_leaf_vector":"1"}},{"base_weights":[4.704806E-3,-1.0517035E0,5.3910565E-2,-5.3328115E-2,5.526684E-2],"categories":[],"categories_nodes":[],"categories_segments":[],"categories_sizes":[],"default_left":[0,0,0,0,0],"id":43,"left_children":[1,3,-1,-1,-1],"loss_changes":[4.513699E3,6.547461E1,0E0,0E0,0E0],"parents":[2147483647,0,0,1,1],"right_children":[2,4,-1,-1,-1],"split_conditions":[8E1,5E0,5.3910565E-2,-5.3328115E-2,5.526684E-2],"split_indices":[1,0,0,0,0],"split_type":[0,0,0,0,0],"sum_hessian":[3.97812E3,2.0050378E3,1.9730824E3,1.9918226E3,1.3215226E1],"tree_param":{"num_deleted":"0","num_feature":"7","num_nodes":"5","size_leaf_vector":"1"}},{"base_weights":[1.3033309E-3,-1.0491878E0,5.3807218E-2,-5.3152498E-2,5.476561E-2],"categories":[],"categories_nodes":[],"categories_segments":[],"categories_sizes":[],"default_left":[0,0,0,0,0],"id":44,"left_children":[1,3,-1,-1,-1],"loss_changes":[4.2616206E3,5.790747E1,0E0,0E0,0E0],"parents":[2147483647,0,0,1,1],"right_children":[2,4,-1,-1,-1],"split_conditions":[8E1,5E0,5.3807218E-2,-5.3152498E-2,5.476561E-2],"split_indices":[1,0,0,0,0],"split_type":[0,0,0,0,0],"sum_hessian":[3.7723157E3,1.9077797E3,1.864536E3,1.8960278E3,1.1751769E1],"tree_param":{"num_deleted":"0","num_feature":"7","num_nodes":"5","size_leaf_vector":"1"}},{"base_weights":[-2.1482217E-3,-1.0448084E0,5.353508E-2,-5.2987035E-2,5.4111004E-2],"categories":[],"categories_nodes":[],"categories_segments":[],"categories_sizes":[],"default_left":[0,0,0,0,0],"id":45,"left_children":[1,3,-1,-1,-1],"loss_changes":[4.028211E3,5.915027E1,0E0,0E0,0E0],"parents":[2147483647,0,0,1,1],"right_children":[2,4,-1,-1,-1],"split_conditions":[8E1,5E0,5.353508E-2,-5.2987035E-2,5.4111004E-2],"split_indices":[1,0,0,0,0],"split_type":[0,0,0,0,0],"sum_hessian":[3.5990608E3,1.8252241E3,1.7738368E3,1.8129982E3,1.2225904E1],"tree_param":{"num_deleted":"0","num_feature":"7","num_nodes":"5","size_leaf_vector":"1"}},{"base_weights":[1.6707059E-3,-1.041621E0,5.329583E-2,-5.283005E-2,5.3562593E-2],"categories":[],"categories_nodes":[],"categories_segments":[],"categories_sizes":[],"default_left":[0,0,0,0,0],"id":46,"left_children":[1,3,-1,-1,-1],"loss_changes":[3.8288372E3,5.624756E1,0E0,0E0,0E0],"parents":[2147483647,0,0,1,1],"right_children":[2,4,-1,-1,-1],"split_conditions":[8E1,5E0,5.329583E-2,-5.283005E-2,5.3562593E-2],"split_indices":[1,0,0,0,0],"split_type":[0,0,0,0,0],"sum_hessian":[3.4464126E3,1.74035E3,1.7060626E3,1.7285942E3,1.1755686E1],"tree_param":{"num_deleted":"0","num_feature":"7","num_nodes":"5","size_leaf_vector":"1"}},{"base_weights":[2.1349376E-3,-1.0426084E0,5.3158976E-2,-5.2681327E-2,5.117935E-2],"categories":[],"categories_nodes":[],"categories_segments":[],"categories_sizes":[],"default_left":[0,0,0,0,0],"id":47,"left_children":[1,3,-1,-1,-1],"loss_changes":[3.6578813E3,3.8930298E1,0E0,0E0,0E0],"parents":[2147483647,0,0,1,1],"right_children":[2,4,-1,-1,-1],"split_conditions":[8E1,5E0,5.3158976E-2,-5.2681327E-2,5.117935E-2],"split_indices":[1,0,0,0,0],"split_type":[0,0,0,0,0],"sum_hessian":[3.2977908E3,1.6616685E3,1.6361222E3,1.6533419E3,8.326511E0],"tree_param":{"num_deleted":"0","num_feature":"7","num_nodes":"5","size_leaf_vector":"1"}},{"base_weights":[2.876699E-3,-5.426025E-1,5.2405514E-2,-7.865527E-1,5.2250862E-2,-8.6005336E-1,5.1599253E-2,-8.907453E-1,5.118536E-2,-5.224293E-2,-8.483753E-1,-9.131975E-1,-8.162616E-1,-4.697611E-2,-3.7248153E-2,-3.402652E-2,-4.2712707E-2],"categories":[],"categories_nodes":[],"categories_segments":[],"categories_sizes":[],"default_left":[0,0,0,0,0,0,0,0,0,0,0,0,0,0,0,0,0],"id":48,"left_children":[1,3,-1,5,-1,7,-1,9,-1,-1,11,13,15,-1,-1,-1,-1],"loss_changes":[1.7870752E3,7.9848846E2,0E0,2.3958545E2,0E0,1.00181274E2,0E0,1.0148804E1,0E0,0E0,2.0251465E0,1.2154236E0,4.0566406E0,0E0,0E0,0E0,0E0],"parents":[2147483647,0,0,1,1,3,3,5,5,7,7,10,10,11,11,12,12],"right_children":[2,4,-1,6,-1,8,-1,10,-1,-1,12,14,16,-1,-1,-1,-1],"split_conditions":[5E0,2E0,5.2405514E-2,3E0,5.2250862E-2,9E0,5.1599253E-2,2E0,5.118536E-2,-5.224293E-2,3E0,2.023E3,2.013E3,-4.697611E-2,-3.7248153E-2,-3.402652E-2,-4.2712707E-2],"split_indices":[0,2,0,3,0,6,0,0,0,0,0,5,5,0,0,0,0],"split_type":[0,0,0,0,0,0,0,0,0,0,0,0,0,0,0,0,0],"sum_hessian":[3.13238E3,2.058556E3,1.073824E3,1.7848104E3,2.7374557E2,1.7159819E3,6.882851E1,1.6889906E3,2.699139E1,3.59114E2,1.3298766E3,4.3148364E2,8.983929E2,3.6913776E2,6.234589E1,2.0061034E2,6.9778253E2],"tree_param":{"num_deleted":"0","num_feature":"7","num_nodes":"17","size_leaf_vector":"1"}},{"base_weights":[-1.3133838E-3,-1.0353484E0,5.302499E-2,-5.1950175E-2,3.8069125E-2],"categories":[],"categories_nodes":[],"categories_segments":[],"categories_sizes":[],"default_left":[0,0,0,0,0],"id":49,"left_children":[1,3,-1,-1,-1],"loss_changes":[3.2953853E3,1.07771E1,0E0,0E0,0E0],"parents":[2147483647,0,0,1,1],"right_children":[2,4,-1,-1,-1],"split_conditions":[8E1,2E0,5.302499E-2,-5.1950175E-2,3.8069125E-2],"split_indices":[1,2,0,0,0],"split_type":[0,0,0,0,0],"sum_hessian":[2.9993928E3,1.5195858E3,1.479807E3,1.5169216E3,2.664164E0],"tree_param":{"num_deleted":"0","num_feature":"7","num_nodes":"5","size_leaf_vector":"1"}},{"base_weights":[-1.7977786E-3,-5.3455883E-1,5.2143227E-2,-7.02683E-1,5.180446E-2,-7.816272E-1,5.1591482E-2,-7.9485416E-1,4.8593137E-2,-5.1993042E-2,-7.32551E-1,-7.2082084E-1,-4.511508E-2,-3.477884E-2,-3.860748E-2],"categories":[],"categories_nodes":[],"categories_segments":[],"categories_sizes":[],"default_left":[0,0,0,0,0,0,0,0,0,0,0,0,0,0,0],"id":50,"left_children":[1,3,-1,5,-1,7,-1,9,-1,-1,11,13,-1,-1,-1],"loss_changes":[1.5955485E3,5.020741E2,0E0,2.357229E2,0E0,3.8844055E1,0E0,2.4115845E1,0E0,0E0,1.9436035E0,1.0482178E0,0E0,0E0,0E0],"parents":[2147483647,0,0,1,1,3,3,5,5,7,7,10,10,11,11],"right_children":[2,4,-1,6,-1,8,-1,10,-1,-1,12,14,-1,-1,-1],"split_conditions":[5E0,3E0,5.2143227E-2,9E0,5.180446E-2,1E0,5.1591482E-2,2E0,4.8593137E-2,-5.1993042E-2,2.024E3,6E0,-4.511508E-2,-3.477884E-2,-3.860748E-2],"split_indices":[0,3,0,6,0,4,0,0,0,0,5,6,0,0,0],"split_type":[0,0,0,0,0,0,0,0,0,0,0,0,0,0,0],"sum_hessian":[2.864826E3,1.8975792E3,9.672467E2,1.714599E3,1.8298021E2,1.6404838E3,7.4115204E1,1.6287445E3,1.1739312E1,3.270265E2,1.301718E3,1.2224879E3,7.923011E1,8.2921985E2,3.9326804E2],"tree_param":{"num_deleted":"0","num_feature":"7","num_nodes":"15","size_leaf_vector":"1"}},{"base_weights":[-6.091019E-3,-1.0317785E0,5.280338E-2,-5.220985E-2,5.00347E-2],"categories":[],"categories_nodes":[],"categories_segments":[],"categories_sizes":[],"default_left":[0,0,0,0,0],"id":51,"left_children":[1,3,-1,-1,-1],"loss_changes":[2.9861785E3,3.6241455E1,0E0,0E0,0E0],"parents":[2147483647,0,0,1,1],"right_children":[2,4,-1,-1,-1],"split_conditions":[8E1,5E0,5.280338E-2,-5.220985E-2,5.00347E-2],"split_indices":[1,0,0,0,0],"split_type":[0,0,0,0,0],"sum_hessian":[2.7390144E3,1.3934448E3,1.3455696E3,1.3854657E3,7.9790797E0],"tree_param":{"num_deleted":"0","num_feature":"7","num_nodes":"5","size_leaf_vector":"1"}},{"base_weights":[-4.938875E-3,-5.253213E-1,5.1938843E-2,-6.881875E-1,5.1568925E-2,-7.617508E-1,5.1285524E-2,-5.1766604E-2,-6.9390863E-1,-7.062553E-1,4.6988826E-2,-6.929905E-1,-4.5254212E-2,-3.5359245E-2,-2.597099E-2],"categories":[],"categories_nodes":[],"categories_segments":[],"categories_sizes":[],"default_left":[0,0,0,0,0,0,0,0,0,0,0,0,0,0,0],"id":52,"left_children":[1,3,-1,5,-1,7,-1,-1,9,11,-1,13,-1,-1,-1],"loss_changes":[1.4281853E3,4.4557886E2,0E0,2.0113287E2,0E0,2.7572266E1,0E0,0E0,2.5360962E1,2.5793457E0,0E0,2.451233E0,0E0,0E0,0E0],"parents":[2147483647,0,0,1,1,3,3,5,5,8,8,9,9,11,11],"right_children":[2,4,-1,6,-1,8,-1,-1,10,12,-1,14,-1,-1,-1],"split_conditions":[5E0,3E0,5.1938843E-2,9E0,5.1568925E-2,2E0,5.1285524E-2,-5.1766604E-2,1E0,2.024E3,4.6988826E-2,2.023E3,-4.5254212E-2,-3.5359245E-2,-2.597099E-2],"split_indices":[0,3,0,6,0,0,0,0,4,5,0,5,0,0,0],"split_type":[0,0,0,0,0,0,0,0,0,0,0,0,0,0,0],"sum_hessian":[2.627535E3,1.7536737E3,8.738611E2,1.5880822E3,1.655916E2,1.523257E3,6.4825165E1,2.998434E2,1.2234136E3,1.2148003E3,8.613243E0,1.1430286E3,7.177175E1,1.0537778E3,8.9250694E1],"tree_param":{"num_deleted":"0","num_feature":"7","num_nodes":"15","size_leaf_vector":"1"}},{"base_weights":[5.5623565E-5,-1.0313998E0,5.272856E-2,-5.184097E-2,4.001808E-2],"categories":[],"categories_nodes":[],"categories_segments":[],"categories_sizes":[],"default_left":[0,0,0,0,0],"id":53,"left_children":[1,3,-1,-1,-1],"loss_changes":[2.764751E3,1.3586304E1,0E0,0E0,0E0],"parents":[2147483647,0,0,1,1],"right_children":[2,4,-1,-1,-1],"split_conditions":[8E1,2E0,5.272856E-2,-5.184097E-2,4.001808E-2],"split_indices":[1,2,0,0,0],"split_type":[0,0,0,0,0],"sum_hessian":[2.5398657E3,1.2839828E3,1.2558828E3,1.2806278E3,3.3549318E0],"tree_param":{"num_deleted":"0","num_feature":"7","num_nodes":"5","size_leaf_vector":"1"}},{"base_weights":[8.885617E-3,-4.9373817E-1,5.175321E-2,-7.456193E-1,5.170792E-2,-8.0058223E-1,5.0751794E-2,-8.130509E-1,4.7079038E-2,-5.1557627E-2,-7.577285E-1,-7.4440545E-1,-4.780099E-2,-3.800663E-2,-2.7853189E-2],"categories":[],"categories_nodes":[],"categories_segments":[],"categories_sizes":[],"default_left":[0,0,0,0,0,0,0,0,0,0,0,0,0,0,0],"id":54,"left_children":[1,3,-1,5,-1,7,-1,9,-1,-1,11,13,-1,-1,-1],"loss_changes":[1.2575837E3,6.306183E2,0E0,1.3683105E2,0E0,3.0386047E1,0E0,1.5560974E1,0E0,0E0,2.152588E0,2.5830688E0,0E0,0E0,0E0],"parents":[2147483647,0,0,1,1,3,3,5,5,7,7,10,10,11,11],"right_children":[2,4,-1,6,-1,8,-1,10,-1,-1,12,14,-1,-1,-1],"split_conditions":[5E0,2E0,5.175321E-2,9E0,5.170792E-2,1E0,5.0751794E-2,2E0,4.7079038E-2,-5.1557627E-2,2.024E3,2.023E3,-4.780099E-2,-3.800663E-2,-2.7853189E-2],"split_indices":[0,2,0,6,0,4,0,0,0,0,5,5,0,0,0],"split_type":[0,0,0,0,0,0,0,0,0,0,0,0,0,0,0],"sum_hessian":[2.4362178E3,1.6356117E3,8.006062E2,1.4045731E3,2.3103865E2,1.3625822E3,4.1990856E1,1.353429E3,9.15324E0,2.7027307E2,1.0831559E3,1.01941583E3,6.3740044E1,9.376439E2,8.1771904E1],"tree_param":{"num_deleted":"0","num_feature":"7","num_nodes":"15","size_leaf_vector":"1"}},{"base_weights":[1.0034024E-2,-4.8812917E-1,5.1653147E-2,-7.257286E-1,5.1600527E-2,-7.9605603E-1,5.0753184E-2,-8.24622E-1,4.9673144E-2,-8.336823E-1,4.517947E-2,-5.1460963E-2,-7.8363854E-1,-4.311344E-2,-3.803688E-2],"categories":[],"categories_nodes":[],"categories_segments":[],"categories_sizes":[],"default_left":[0,0,0,0,0,0,0,0,0,0,0,0,0,0,0],"id":55,"left_children":[1,3,-1,5,-1,7,-1,9,-1,11,-1,-1,13,-1,-1],"loss_changes":[1.1961215E3,5.708506E2,0E0,1.6799817E2,0E0,6.794806E1,0E0,2.1000916E1,0E0,1.178595E1,0E0,0E0,1.1967163E0,0E0,0E0],"parents":[2147483647,0,0,1,1,3,3,5,5,7,7,9,9,12,12],"right_children":[2,4,-1,6,-1,8,-1,10,-1,12,-1,-1,14,-1,-1],"split_conditions":[5E0,2E0,5.1653147E-2,3E0,5.1600527E-2,9E0,5.0753184E-2,1E0,4.9673144E-2,2E0,4.517947E-2,-5.1460963E-2,2E0,-4.311344E-2,-3.803688E-2],"split_indices":[0,2,0,3,0,6,0,4,0,0,0,0,6,0,0],"split_type":[0,0,0,0,0,0,0,0,0,0,0,0,0,0,0],"sum_hessian":[2.345025E3,1.5774229E3,7.6760205E2,1.3646493E3,2.1277351E2,1.3121804E3,5.2468937E1,1.292094E3,2.0086388E1,1.2858702E3,6.223732E0,2.5804385E2,1.0278264E3,2.2356512E2,8.042613E2],"tree_param":{"num_deleted":"0","num_feature":"7","num_nodes":"15","size_leaf_vector":"1"}},{"base_weights":[-8.8386703E-4,-1.0184153E0,5.2664407E-2,-5.175091E-2,5.0430633E-2],"categories":[],"categories_nodes":[],"categories_segments":[],"categories_sizes":[],"default_left":[0,0,0,0,0],"id":56,"left_children":[1,3,-1,-1,-1],"loss_changes":[2.3956921E3,3.9290894E1,0E0,0E0,0E0],"parents":[2147483647,0,0,1,1],"right_children":[2,4,-1,-1,-1],"split_conditions":[8E1,5E0,5.2664407E-2,-5.175091E-2,5.0430633E-2],"split_indices":[1,0,0,0,0],"split_type":[0,0,0,0,0],"sum_hessian":[2.2314265E3,1.1354631E3,1.0959633E3,1.1267239E3,8.739292E0],"tree_param":{"num_deleted":"0","num_feature":"7","num_nodes":"5","size_leaf_vector":"1"}},{"base_weights":[6.1953E-4,-4.8400268E-1,5.1481813E-2,-7.126833E-1,5.1378127E-2,-7.804643E-1,5.0480235E-2,-8.0740666E-1,4.915872E-2,-8.1626755E-1,4.441034E-2,-5.1279027E-2,-7.6380694E-1,-4.2185538E-2,-3.7048083E-2],"categories":[],"categories_nodes":[],"categories_segments":[],"categories_sizes":[],"default_left":[0,0,0,0,0,0,0,0,0,0,0,0,0,0,0],"id":57,"left_children":[1,3,-1,5,-1,7,-1,9,-1,11,-1,-1,13,-1,-1],"loss_changes":[1.0637378E3,5.0199515E2,0E0,1.4789813E2,0E0,5.8432312E1,0E0,1.8684265E1,0E0,1.2279419E1,0E0,0E0,1.1184082E0,0E0,0E0],"parents":[2147483647,0,0,1,1,3,3,5,5,7,7,9,9,12,12],"right_children":[2,4,-1,6,-1,8,-1,10,-1,12,-1,-1,14,-1,-1],"split_conditions":[5E0,2E0,5.1481813E-2,3E0,5.1378127E-2,9E0,5.0480235E-2,1E0,4.915872E-2,2E0,4.441034E-2,-5.1279027E-2,2E0,-4.2185538E-2,-3.7048083E-2],"split_indices":[0,2,0,3,0,6,0,4,0,0,0,0,6,0,0],"split_type":[0,0,0,0,0,0,0,0,0,0,0,0,0,0,0],"sum_hessian":[2.131089E3,1.4491378E3,6.819514E2,1.2591699E3,1.8996793E2,1.2120176E3,4.7152325E1,1.1943147E3,1.7702848E1,1.1886218E3,5.692867E0,2.3448788E2,9.54134E2,2.0415387E2,7.499801E2],"tree_param":{"num_deleted":"0","num_feature":"7","num_nodes":"15","size_leaf_vector":"1"}},{"base_weights":[4.3784156E-3,-4.711679E-1,5.138082E-2,-7.0223194E-1,5.1285602E-2,-7.670722E-1,5.032692E-2,-7.940149E-1,4.899674E-2,-8.017754E-1,4.3244284E-2,-5.119391E-2,-7.472172E-1,-4.278369E-2,-3.5859305E-2],"categories":[],"categories_nodes":[],"categories_segments":[],"categories_sizes":[],"default_left":[0,0,0,0,0,0,0,0,0,0,0,0,0,0,0],"id":58,"left_children":[1,3,-1,5,-1,7,-1,9,-1,11,-1,-1,13,-1,-1],"loss_changes":[1.00240045E3,4.871619E2,0E0,1.3582635E2,0E0,5.608142E1,0E0,1.5596863E1,0E0,1.3203735E1,0E0,0E0,2.4125977E0,0E0,0E0],"parents":[2147483647,0,0,1,1,3,3,5,5,7,7,9,9,12,12],"right_children":[2,4,-1,6,-1,8,-1,10,-1,12,-1,-1,14,-1,-1],"split_conditions":[5E0,2E0,5.138082E-2,3E0,5.1285602E-2,9E0,5.032692E-2,1E0,4.899674E-2,2E0,4.3244284E-2,-5.119391E-2,2E0,-4.278369E-2,-3.5859305E-2],"split_indices":[0,2,0,3,0,6,0,4,0,0,0,0,6,0,0],"split_type":[0,0,0,0,0,0,0,0,0,0,0,0,0,0,0],"sum_hessian":[2.058027E3,1.4054081E3,6.52619E2,1.217934E3,1.8747404E2,1.1739393E3,4.399468E1,1.1566467E3,1.7292542E1,1.1517753E3,4.8714304E0,2.236292E2,9.281461E2,1.9530688E2,7.3283923E2],"tree_param":{"num_deleted":"0","num_feature":"7","num_nodes":"15","size_leaf_vector":"1"}},{"base_weights":[1.6917131E-3,-1.0176797E0,1.0521883E0,-5.1523533E-2,4.7043443E-2,5.481952E-2,5.1271785E-2],"categories":[],"categories_nodes":[],"categories_segments":[],"categories_sizes":[],"default_left":[0,0,0,0,0,0,0],"id":59,"left_children":[1,3,5,-1,-1,-1,-1],"loss_changes":[2.1141565E3,2.6071045E1,2.5512695E-2,0E0,0E0,0E0,0E0],"parents":[2147483647,0,0,1,1,2,2],"right_children":[2,4,6,-1,-1,-1,-1],"split_conditions":[8E1,5E0,5E0,-5.1523533E-2,4.7043443E-2,5.481952E-2,5.1271785E-2],"split_indices":[1,0,0,0,0,0,0],"split_type":[0,0,0,0,0,0,0],"sum_hessian":[1.972286E3,1.00098773E3,9.712983E2,9.949637E2,6.024083E0,3.5114053E2,6.201577E2],"tree_param":{"num_deleted":"0","num_feature":"7","num_nodes":"7","size_leaf_vector":"1"}},{"base_weights":[1.076023E-2,-1.0122964E0,1.0514333E0,-5.144245E-2,4.85965E-2,5.4815855E-2,5.1199246E-2],"categories":[],"categories_nodes":[],"categories_segments":[],"categories_sizes":[],"default_left":[0,0,0,0,0,0,0],"id":60,"left_children":[1,3,5,-1,-1,-1,-1],"loss_changes":[2.0231489E3,3.247278E1,3.7963867E-2,0E0,0E0,0E0,0E0],"parents":[2147483647,0,0,1,1,2,2],"right_children":[2,4,6,-1,-1,-1,-1],"split_conditions":[8E1,5E0,5E0,-5.144245E-2,4.85965E-2,5.4815855E-2,5.1199246E-2],"split_indices":[1,0,0,0,0,0,0],"split_type":[0,0,0,0,0,0,0],"sum_hessian":[1.898264E3,9.5724774E2,9.410163E2,9.4980585E2,7.4418817E0,3.4231677E2,5.986995E2],"tree_param":{"num_deleted":"0","num_feature":"7","num_nodes":"7","size_leaf_vector":"1"}},{"base_weights":[6.2969215E-3,-1.0106175E0,5.246536E-2,-5.0791062E-2,3.5869002E-2],"categories":[],"categories_nodes":[],"categories_segments":[],"categories_sizes":[],"default_left":[0,0,0,0,0],"id":61,"left_children":[1,3,-1,-1,-1],"loss_changes":[1.908978E3,8.923462E0,0E0,0E0,0E0],"parents":[2147483647,0,0,1,1],"right_children":[2,4,-1,-1,-1],"split_conditions":[8E1,2E0,5.246536E-2,-5.0791062E-2,3.5869002E-2],"split_indices":[1,2,0,0,0],"split_type":[0,0,0,0,0],"sum_hessian":[1.7978156E3,9.103112E2,8.8750433E2,9.0798895E2,2.3222487E0],"tree_param":{"num_deleted":"0","num_feature":"7","num_nodes":"5","size_leaf_vector":"1"}},{"base_weights":[8.13394E-3,-1.0080075E0,5.2301742E-2,-5.1291283E-2,4.852075E-2],"categories":[],"categories_nodes":[],"categories_segments":[],"categories_sizes":[],"default_left":[0,0,0,0,0],"id":62,"left_children":[1,3,-1,-1,-1],"loss_changes":[1.8120374E3,3.1599976E1,0E0,0E0,0E0],"parents":[2147483647,0,0,1,1],"right_children":[2,4,-1,-1,-1],"split_conditions":[8E1,5E0,5.2301742E-2,-5.1291283E-2,4.852075E-2],"split_indices":[1,0,0,0,0],"split_type":[0,0,0,0,0],"sum_hessian":[1.7161346E3,8.6717175E2,8.489629E2,8.5990875E2,7.2630014E0],"tree_param":{"num_deleted":"0","num_feature":"7","num_nodes":"5","size_leaf_vector":"1"}},{"base_weights":[4.866223E-3,-1.0156862E0,5.216656E-2,-5.122106E-2,4.1632693E-2],"categories":[],"categories_nodes":[],"categories_segments":[],"categories_sizes":[],"default_left":[0,0,0,0,0],"id":63,"left_children":[1,3,-1,-1,-1],"loss_changes":[1.7294246E3,1.414093E1,0E0,0E0,0E0],"parents":[2147483647,0,0,1,1],"right_children":[2,4,-1,-1,-1],"split_conditions":[8E1,5E0,5.216656E-2,-5.122106E-2,4.1632693E-2],"split_indices":[1,0,0,0,0],"split_type":[0,0,0,0,0],"sum_hessian":[1.6298286E3,8.220148E2,8.0781384E2,8.185919E2,3.4228537E0],"tree_param":{"num_deleted":"0","num_feature":"7","num_nodes":"5","size_leaf_vector":"1"}},{"base_weights":[5.3463E-3,-1.0059371E0,5.2059717E-2,-5.115387E-2,4.7525607E-2],"categories":[],"categories_nodes":[],"categories_segments":[],"categories_sizes":[],"default_left":[0,0,0,0,0],"id":64,"left_children":[1,3,-1,-1,-1],"loss_changes":[1.6358793E3,2.7470886E1,0E0,0E0,0E0],"parents":[2147483647,0,0,1,1],"right_children":[2,4,-1,-1,-1],"split_conditions":[8E1,5E0,5.2059717E-2,-5.115387E-2,4.7525607E-2],"split_indices":[1,0,0,0,0],"split_type":[0,0,0,0,0],"sum_hessian":[1.5596451E3,7.891947E2,7.7045044E2,7.828136E2,6.381069E0],"tree_param":{"num_deleted":"0","num_feature":"7","num_nodes":"5","size_leaf_vector":"1"}},{"base_weights":[-2.7633703E-4,-4.7646326E-1,5.0932605E-2,-6.973925E-1,5.0695773E-2,-7.6276517E-1,4.9485303E-2,-7.855851E-1,4.68722E-2,-5.0676376E-2,-7.304039E-1,-6.0487056E-1,-7.6531094E-1,-4.915036E-2,-2.6244242E-2,-4.7327645E-2,-3.648619E-2],"categories":[],"categories_nodes":[],"categories_segments":[],"categories_sizes":[],"default_left":[0,0,0,0,0,0,0,0,0,0,0,0,0,0,0,0,0],"id":65,"left_children":[1,3,-1,5,-1,7,-1,9,-1,-1,11,13,15,-1,-1,-1,-1],"loss_changes":[7.187355E2,3.3311136E2,0E0,9.778677E1,0E0,3.361966E1,0E0,9.785767E0,0E0,0E0,2.5051575E0,4.0854874E0,2.7031555E0,0E0,0E0,0E0,0E0],"parents":[2147483647,0,0,1,1,3,3,5,5,7,7,10,10,11,11,12,12],"right_children":[2,4,-1,6,-1,8,-1,10,-1,-1,12,14,16,-1,-1,-1,-1],"split_conditions":[5E0,2E0,5.0932605E-2,3E0,5.0695773E-2,9E0,4.9485303E-2,2E0,4.68722E-2,-5.0676376E-2,2.013E3,2E0,2.015E3,-4.915036E-2,-2.6244242E-2,-4.7327645E-2,-3.648619E-2],"split_indices":[0,2,0,3,0,6,0,0,0,0,5,6,5,0,0,0,0],"split_type":[0,0,0,0,0,0,0,0,0,0,0,0,0,0,0,0,0],"sum_hessian":[1.4793165E3,1.0085243E3,4.707923E2,8.7878754E2,1.2973676E2,8.4653345E2,3.2254055E1,8.358527E2,1.0680744E1,1.59524E2,6.7632874E2,1.5113661E2,5.2519214E2,2.441651E1,1.267201E2,8.1995995E1,4.431961E2],"tree_param":{"num_deleted":"0","num_feature":"7","num_nodes":"17","size_leaf_vector":"1"}},{"base_weights":[1.0367019E-2,-1.0037738E0,5.2021958E-2,-5.0401386E-2,3.0738855E-2],"categories":[],"categories_nodes":[],"categories_segments":[],"categories_sizes":[],"default_left":[0,0,0,0,0],"id":66,"left_children":[1,3,-1,-1,-1],"loss_changes":[1.4986504E3,5.596985E0,0E0,0E0,0E0],"parents":[2147483647,0,0,1,1],"right_children":[2,4,-1,-1,-1],"split_conditions":[8E1,2E0,5.2021958E-2,-5.0401386E-2,3.0738855E-2],"split_indices":[1,2,0,0,0],"split_type":[0,0,0,0,0],"sum_hessian":[1.4326123E3,7.219014E2,7.107108E2,7.203853E2,1.5160913E0],"tree_param":{"num_deleted":"0","num_feature":"7","num_nodes":"5","size_leaf_vector":"1"}},{"base_weights":[4.5926385E-3,-1.0002627E0,5.1864993E-2,-5.098487E-2,4.716372E-2],"categories":[],"categories_nodes":[],"categories_segments":[],"categories_sizes":[],"default_left":[0,0,0,0,0],"id":67,"left_children":[1,3,-1,-1,-1],"loss_changes":[1.4088365E3,2.6952515E1,0E0,0E0,0E0],"parents":[2147483647,0,0,1,1],"right_children":[2,4,-1,-1,-1],"split_conditions":[8E1,5E0,5.1864993E-2,-5.098487E-2,4.716372E-2],"split_indices":[1,0,0,0,0],"split_type":[0,0,0,0,0],"sum_hessian":[1.3556252E3,6.870937E2,6.6853156E2,6.8076166E2,6.3320217E0],"tree_param":{"num_deleted":"0","num_feature":"7","num_nodes":"5","size_leaf_vector":"1"}},{"base_weights":[8.6692773E-4,-9.998792E-1,5.1802356E-2,-5.0928574E-2,4.656134E-2],"categories":[],"categories_nodes":[],"categories_segments":[],"categories_sizes":[],"default_left":[0,0,0,0,0],"id":68,"left_children":[1,3,-1,-1,-1],"loss_changes":[1.3366357E3,2.4629272E1,0E0,0E0,0E0],"parents":[2147483647,0,0,1,1],"right_children":[2,4,-1,-1,-1],"split_conditions":[8E1,5E0,5.1802356E-2,-5.0928574E-2,4.656134E-2],"split_indices":[1,0,0,0,0],"split_type":[0,0,0,0,0],"sum_hessian":[1.288248E3,6.550356E2,6.332125E2,6.4922394E2,5.8116617E0],"tree_param":{"num_deleted":"0","num_feature":"7","num_nodes":"5","size_leaf_vector":"1"}},{"base_weights":[7.391607E-3,-4.4344065E-1,5.0726432E-2,-6.60978E-1,5.0431687E-2,-7.2333014E-1,4.8988152E-2,-7.452636E-1,4.5881942E-2,-5.042482E-2,-6.8403226E-1,-5.2924395E-1,-7.287613E-1,-4.8526317E-2,-2.212586E-2,-3.542552E-2,-4.8150007E-2],"categories":[],"categories_nodes":[],"categories_segments":[],"categories_sizes":[],"default_left":[0,0,0,0,0,0,0,0,0,0,0,0,0,0,0,0,0],"id":69,"left_children":[1,3,-1,5,-1,7,-1,9,-1,-1,11,13,15,-1,-1,-1,-1],"loss_changes":[5.6114795E2,2.703429E2,0E0,7.673038E1,0E0,2.64711E1,0E0,1.0714813E1,0E0,0E0,3.610199E0,4.6621513E0,1.4291077E0,0E0,0E0,0E0,0E0],"parents":[2147483647,0,0,1,1,3,3,5,5,7,7,10,10,11,11,12,12],"right_children":[2,4,-1,6,-1,8,-1,10,-1,-1,12,14,16,-1,-1,-1,-1],"split_conditions":[5E0,2E0,5.0726432E-2,3E0,5.0431687E-2,9E0,4.8988152E-2,2E0,4.5881942E-2,-5.042482E-2,2.013E3,2E0,2.024E3,-4.8526317E-2,-2.212586E-2,-3.542552E-2,-4.8150007E-2],"split_indices":[0,2,0,3,0,6,0,0,0,0,5,6,5,0,0,0,0],"split_type":[0,0,0,0,0,0,0,0,0,0,0,0,0,0,0,0,0],"sum_hessian":[1.2338822E3,8.527286E2,3.8115353E2,7.420985E2,1.10630066E2,7.1546814E2,2.6630367E1,7.065699E2,8.898272E0,1.3042091E2,5.76149E2,1.3204147E2,4.441075E2,2.0014294E1,1.1202718E2,4.1247232E2,3.1635197E1],"tree_param":{"num_deleted":"0","num_feature":"7","num_nodes":"17","size_leaf_vector":"1"}},{"base_weights":[3.4958927E-3,-1.0018864E0,5.1798612E-2,-5.0360736E-2,3.118906E-2],"categories":[],"categories_nodes":[],"categories_segments":[],"categories_sizes":[],"default_left":[0,0,0,0,0],"id":70,"left_children":[1,3,-1,-1,-1],"loss_changes":[1.233114E3,5.841675E0,0E0,0E0,0E0],"parents":[2147483647,0,0,1,1],"right_children":[2,4,-1,-1,-1],"split_conditions":[8E1,2E0,5.1798612E-2,-5.0360736E-2,3.118906E-2],"split_indices":[1,2,0,0,0],"split_type":[0,0,0,0,0],"sum_hessian":[1.185933E3,6.0086523E2,5.850678E2,5.992815E2,1.5837902E0],"tree_param":{"num_deleted":"0","num_feature":"7","num_nodes":"5","size_leaf_vector":"1"}},{"base_weights":[-4.1735597E-4,-4.539257E-1,5.0641514E-2,-6.6022867E-1,5.027954E-2,-7.2171414E-1,4.8737038E-2,-7.433823E-1,4.535121E-2,-8.8356483E-1,-6.3221323E-1,-5.0306257E-2,-7.9165596E-1,-6.1090505E-1,-4.8326124E-2,-4.860711E-2,-3.7971385E-2,-2.4740156E-2,-3.2304775E-2],"categories":[],"categories_nodes":[],"categories_segments":[],"categories_sizes":[],"default_left":[0,0,0,0,0,0,0,0,0,0,0,0,0,0,0,0,0,0,0],"id":71,"left_children":[1,3,-1,5,-1,7,-1,9,-1,11,13,-1,15,17,-1,-1,-1,-1,-1],"loss_changes":[5.187095E2,2.3546231E2,0E0,6.944635E1,0E0,2.3953186E1,0E0,9.594452E0,0E0,2.4210052E0,2.0229645E0,0E0,2.3847961E-1,1.1004944E0,0E0,0E0,0E0,0E0,0E0],"parents":[2147483647,0,0,1,1,3,3,5,5,7,7,9,9,10,10,12,12,13,13],"right_children":[2,4,-1,6,-1,8,-1,10,-1,12,14,-1,16,18,-1,-1,-1,-1,-1],"split_conditions":[5E0,2E0,5.0641514E-2,3E0,5.027954E-2,9E0,4.8737038E-2,3E0,4.535121E-2,2E0,2.024E3,-5.0306257E-2,2.012E3,2.013E3,-4.8326124E-2,-4.860711E-2,-3.7971385E-2,-2.4740156E-2,-3.2304775E-2],"split_indices":[0,2,0,3,0,6,0,0,0,0,5,0,5,5,0,0,0,0,0],"split_type":[0,0,0,0,0,0,0,0,0,0,0,0,0,0,0,0,0,0,0],"sum_hessian":[1.1268159E3,7.787954E2,3.4802048E2,6.828255E2,9.596989E1,6.5861584E2,2.420967E1,6.505054E2,8.110482E0,2.8463574E2,3.6586963E2,1.177155E2,1.6692026E2,3.466051E2,1.9264507E1,2.0871353E1,1.460489E2,8.412306E1,2.6248206E2],"tree_param":{"num_deleted":"0","num_feature":"7","num_nodes":"19","size_leaf_vector":"1"}},{"base_weights":[-1.4836644E-3,-9.943387E-1,5.1795203E-2,-5.075382E-2,4.5723815E-2],"categories":[],"categories_nodes":[],"categories_segments":[],"categories_sizes":[],"default_left":[0,0,0,0,0],"id":72,"left_children":[1,3,-1,-1,-1],"loss_changes":[1.1173645E3,2.2870728E1,0E0,0E0,0E0],"parents":[2147483647,0,0,1,1],"right_children":[2,4,-1,-1,-1],"split_conditions":[8E1,5E0,5.1795203E-2,-5.075382E-2,4.5723815E-2],"split_indices":[1,0,0,0,0],"split_type":[0,0,0,0,0],"sum_hessian":[1.0828456E3,5.533199E2,5.2952563E2,5.478363E2,5.4835753E0],"tree_param":{"num_deleted":"0","num_feature":"7","num_nodes":"5","size_leaf_vector":"1"}},{"base_weights":[6.037627E-3,-9.9320847E-1,5.171453E-2,-4.992796E-2,2.961879E-2],"categories":[],"categories_nodes":[],"categories_segments":[],"categories_sizes":[],"default_left":[0,0,0,0,0],"id":73,"left_children":[1,3,-1,-1,-1],"loss_changes":[1.0675743E3,5.062256E0,0E0,0E0,0E0],"parents":[2147483647,0,0,1,1],"right_children":[2,4,-1,-1,-1],"split_conditions":[8E1,2E0,5.171453E-2,-4.992796E-2,2.961879E-2],"split_indices":[1,2,0,0,0],"split_type":[0,0,0,0,0],"sum_hessian":[1.0370245E3,5.259478E2,5.1107678E2,5.2454785E2,1.3999274E0],"tree_param":{"num_deleted":"0","num_feature":"7","num_nodes":"5","size_leaf_vector":"1"}},{"base_weights":[4.1464893E-3,-9.973468E-1,5.1576175E-2,-5.066348E-2,4.271912E-2],"categories":[],"categories_nodes":[],"categories_segments":[],"categories_sizes":[],"default_left":[0,0,0,0,0],"id":74,"left_children":[1,3,-1,-1,-1],"loss_changes":[1.0199527E3,1.5666168E1,0E0,0E0,0E0],"parents":[2147483647,0,0,1,1],"right_children":[2,4,-1,-1,-1],"split_conditions":[8E1,5E0,5.1576175E-2,-5.066348E-2,4.271912E-2],"split_indices":[1,0,0,0,0],"split_type":[0,0,0,0,0],"sum_hessian":[9.8929333E2,5.0097202E2,4.8832132E2,4.971499E2,3.8221283E0],"tree_param":{"num_deleted":"0","num_feature":"7","num_nodes":"5","size_leaf_vector":"1"}},{"base_weights":[-1.5967387E-3,-9.9063647E-1,5.150929E-2,-5.0620735E-2,4.5073565E-2],"categories":[],"categories_nodes":[],"categories_segments":[],"categories_sizes":[],"default_left":[0,0,0,0,0],"id":75,"left_children":[1,3,-1,-1,-1],"loss_changes":[9.600833E2,2.0706726E1,0E0,0E0,0E0],"parents":[2147483647,0,0,1,1],"right_children":[2,4,-1,-1,-1],"split_conditions":[8E1,5E0,5.150929E-2,-5.0620735E-2,4.5073565E-2],"split_indices":[1,0,0,0,0],"split_type":[0,0,0,0,0],"sum_hessian":[9.38821E2,4.7935944E2,4.5946152E2,4.743644E2,4.995034E0],"tree_param":{"num_deleted":"0","num_feature":"7","num_nodes":"5","size_leaf_vector":"1"}},{"base_weights":[6.7026727E-3,-4.3509972E-1,5.043907E-2,-6.333261E-1,4.9953528E-2,-6.90698E-1,4.7992602E-2,-5.003011E-2,-6.2298924E-1,-6.368882E-1,4.0077224E-2,-6.165413E-1,-4.8481964E-2,-2.4576144E-2,-3.276656E-2],"categories":[],"categories_nodes":[],"categories_segments":[],"categories_sizes":[],"default_left":[0,0,0,0,0,0,0,0,0,0,0,0,0,0,0],"id":76,"left_children":[1,3,-1,5,-1,7,-1,-1,9,11,-1,13,-1,-1,-1],"loss_changes":[3.989351E2,1.7842473E2,0E0,5.094037E1,0E0,1.0529602E1,0E0,0E0,9.199814E0,2.3485565E0,0E0,1.6799927E0,0E0,0E0,0E0],"parents":[2147483647,0,0,1,1,3,3,5,5,8,8,9,9,11,11],"right_children":[2,4,-1,6,-1,8,-1,-1,10,12,-1,14,-1,-1,-1],"split_conditions":[5E0,2E0,5.043907E-2,3E0,4.9953528E-2,2E0,4.7992602E-2,-5.003011E-2,1E0,2.024E3,4.0077224E-2,2.013E3,-4.8481964E-2,-2.4576144E-2,-3.276656E-2],"split_indices":[0,2,0,3,0,0,0,0,4,5,0,5,0,0,0],"split_type":[0,0,0,0,0,0,0,0,0,0,0,0,0,0,0],"sum_hessian":[8.991072E2,6.243888E2,2.7471838E2,5.4905817E2,7.5330635E1,5.3052E2,1.853809E1,9.265566E1,4.3786438E2,4.3418106E2,3.6833272E0,4.1185028E2,2.2330767E1,1.0076356E2,3.1108673E2],"tree_param":{"num_deleted":"0","num_feature":"7","num_nodes":"15","size_leaf_vector":"1"}},{"base_weights":[3.8262433E-4,-9.902438E-1,5.1499438E-2,-5.0552394E-2,4.3888044E-2],"categories":[],"categories_nodes":[],"categories_segments":[],"categories_sizes":[],"default_left":[0,0,0,0,0],"id":77,"left_children":[1,3,-1,-1,-1],"loss_changes":[8.8261926E2,1.8026642E1,0E0,0E0,0E0],"parents":[2147483647,0,0,1,1],"right_children":[2,4,-1,-1,-1],"split_conditions":[8E1,5E0,5.1499438E-2,-5.0552394E-2,4.3888044E-2],"split_indices":[1,0,0,0,0],"split_type":[0,0,0,0,0],"sum_hessian":[8.6335114E2,4.400241E2,4.2332706E2,4.356312E2,4.3929005E0],"tree_param":{"num_deleted":"0","num_feature":"7","num_nodes":"5","size_leaf_vector":"1"}},{"base_weights":[9.0802135E-3,-4.164746E-1,5.0360303E-2,-6.037235E-1,4.982015E-2,-6.5828705E-1,4.7695994E-2,-4.9920794E-2,-5.86986E-1,-5.9666836E-1,3.6290158E-2,-5.7601655E-1,-4.7156904E-2,-3.0022938E-2,-1.5440968E-2],"categories":[],"categories_nodes":[],"categories_segments":[],"categories_sizes":[],"default_left":[0,0,0,0,0,0,0,0,0,0,0,0,0,0,0],"id":78,"left_children":[1,3,-1,5,-1,7,-1,-1,9,11,-1,13,-1,-1,-1],"loss_changes":[3.530934E2,1.5479173E2,0E0,4.4418304E1,0E0,1.1500717E1,0E0,0E0,5.7010803E0,2.404419E0,0E0,2.370453E0,0E0,0E0,0E0],"parents":[2147483647,0,0,1,1,3,3,5,5,8,8,9,9,11,11],"right_children":[2,4,-1,6,-1,8,-1,-1,10,12,-1,14,-1,-1,-1],"split_conditions":[5E0,2E0,5.0360303E-2,3E0,4.982015E-2,2E0,4.7695994E-2,-4.9920794E-2,1E0,2.024E3,3.6290158E-2,2.023E3,-4.7156904E-2,-3.0022938E-2,-1.5440968E-2],"split_indices":[0,2,0,3,0,0,0,0,4,5,0,5,0,0,0],"split_type":[0,0,0,0,0,0,0,0,0,0,0,0,0,0,0],"sum_hessian":[8.292953E2,5.818178E2,2.4747752E2,5.1423834E2,6.7579414E1,4.9739233E2,1.6846031E1,8.394499E1,4.1344736E2,4.1096182E2,2.4855213E0,3.903566E2,2.0605225E1,3.564983E2,3.385831E1],"tree_param":{"num_deleted":"0","num_feature":"7","num_nodes":"15","size_leaf_vector":"1"}},{"base_weights":[-8.730002E-3,-9.9280304E-1,5.1422883E-2,-4.9909607E-2,2.632749E-2],"categories":[],"categories_nodes":[],"categories_segments":[],"categories_sizes":[],"default_left":[0,0,0,0,0],"id":79,"left_children":[1,3,-1,-1,-1],"loss_changes":[8.04836E2,3.838623E0,0E0,0E0,0E0],"parents":[2147483647,0,0,1,1],"right_children":[2,4,-1,-1,-1],"split_conditions":[8E1,2E0,5.1422883E-2,-4.9909607E-2,2.632749E-2],"split_indices":[1,2,0,0,0],"split_type":[0,0,0,0,0],"sum_hessian":[7.8653784E2,4.0362515E2,3.8291266E2,4.0254037E2,1.0847864E0],"tree_param":{"num_deleted":"0","num_feature":"7","num_nodes":"5","size_leaf_vector":"1"}},{"base_weights":[2.0840676E-3,-9.847466E-1,5.1428862E-2,-5.0453197E-2,4.3820612E-2],"categories":[],"categories_nodes":[],"categories_segments":[],"categories_sizes":[],"default_left":[0,0,0,0,0],"id":80,"left_children":[1,3,-1,-1,-1],"loss_changes":[7.6907007E2,1.8403442E1,0E0,0E0,0E0],"parents":[2147483647,0,0,1,1],"right_children":[2,4,-1,-1,-1],"split_conditions":[8E1,5E0,5.1428862E-2,-5.0453197E-2,4.3820612E-2],"split_indices":[1,0,0,0,0],"split_type":[0,0,0,0,0],"sum_hessian":[7.5721936E2,3.8608902E2,3.7113034E2,3.815615E2,4.5275364E0],"tree_param":{"num_deleted":"0","num_feature":"7","num_nodes":"5","size_leaf_vector":"1"}},{"base_weights":[-3.565879E-3,-3.6508587E-1,5.0173588E-2,-5.076207E-1,4.943606E-2,-5.730552E-1,4.8070442E-2,-5.889363E-1,4.1533332E-2,-4.6643218E-1,-6.2362707E-1,-2.7784687E-1,-6.992165E-1,-5.8069676E-1,-7.1253484E-1,-3.8020033E-2,-8.98539E-3,-2.701867E-2,-3.844139E-2,-3.3526085E-2,-2.4711424E-2,-4.5610007E-2,-2.6876321E-2],"categories":[],"categories_nodes":[],"categories_segments":[],"categories_sizes":[],"default_left":[0,0,0,0,0,0,0,0,0,0,0,0,0,0,0,0,0,0,0,0,0,0,0],"id":81,"left_children":[1,3,-1,5,-1,7,-1,9,-1,11,13,15,17,19,21,-1,-1,-1,-1,-1,-1,-1,-1],"loss_changes":[2.621656E2,1.0274928E2,0E0,4.669712E1,0E0,1.0748703E1,0E0,1.6455383E0,0E0,4.3942947E0,9.302826E-1,2.6765351E0,9.451866E-2,1.5549927E0,3.3624725E0,0E0,0E0,0E0,0E0,0E0,0E0,0E0,0E0],"parents":[2147483647,0,0,1,1,3,3,5,5,7,7,9,9,10,10,11,11,12,12,13,13,14,14],"right_children":[2,4,-1,6,-1,8,-1,10,-1,12,14,16,18,20,22,-1,-1,-1,-1,-1,-1,-1,-1],"split_conditions":[2E0,3E0,5.0173588E-2,9E0,4.943606E-2,1E0,4.8070442E-2,2.013E3,4.1533332E-2,2E0,6E0,2E0,2.011E3,2E0,2.019E3,-3.8020033E-2,-8.98539E-3,-2.701867E-2,-3.844139E-2,-3.3526085E-2,-2.4711424E-2,-4.5610007E-2,-2.6876321E-2],"split_indices":[2,3,0,6,0,4,0,5,0,3,6,6,5,3,5,0,0,0,0,0,0,0,0],"split_type":[0,0,0,0,0,0,0,0,0,0,0,0,0,0,0,0,0,0,0,0,0,0,0],"sum_hessian":[7.1810175E2,5.2887616E2,1.8922563E2,4.7906326E2,4.9812878E1,4.5921835E2,1.9844896E1,4.5465503E2,4.563336E0,1.0352396E2,3.5113107E2,5.8403316E1,4.5120644E1,2.4187166E2,1.092594E2,8.729892E0,4.9673424E1,1.641855E1,2.8702091E1,1.1532027E2,1.2655139E2,4.906704E1,6.0192364E1],"tree_param":{"num_deleted":"0","num_feature":"7","num_nodes":"23","size_leaf_vector":"1"}},{"base_weights":[1.5688763E-3,-9.891003E-1,5.1418126E-2,-5.0397336E-2,4.0656608E-2],"categories":[],"categories_nodes":[],"categories_segments":[],"categories_sizes":[],"default_left":[0,0,0,0,0],"id":82,"left_children":[1,3,-1,-1,-1],"loss_changes":[7.127945E2,1.29331665E1,0E0,0E0,0E0],"parents":[2147483647,0,0,1,1],"right_children":[2,4,-1,-1,-1],"split_conditions":[8E1,5E0,5.1418126E-2,-5.0397336E-2,4.0656608E-2],"split_indices":[1,0,0,0,0],"split_type":[0,0,0,0,0],"sum_hessian":[6.98733E2,3.556409E2,3.430921E2,3.523965E2,3.2443995E0],"tree_param":{"num_deleted":"0","num_feature":"7","num_nodes":"5","size_leaf_vector":"1"}},{"base_weights":[3.8050502E-4,-4.1075662E-1,5.0205577E-2,-5.921313E-1,4.9511712E-2,-6.451823E-1,4.692896E-2,-4.9669348E-2,-5.734559E-1,-5.8445776E-1,3.551204E-2,-5.639536E-1,-4.641541E-2,-2.9646873E-2,-1.3134782E-2],"categories":[],"categories_nodes":[],"categories_segments":[],"categories_sizes":[],"default_left":[0,0,0,0,0,0,0,0,0,0,0,0,0,0,0],"id":83,"left_children":[1,3,-1,5,-1,7,-1,-1,9,11,-1,13,-1,-1,-1],"loss_changes":[2.7574954E2,1.2104132E2,0E0,3.4738617E1,0E0,9.59137E0,0E0,0E0,5.212921E0,1.8551178E0,0E0,2.6465683E0,0E0,0E0,0E0],"parents":[2147483647,0,0,1,1,3,3,5,5,8,8,9,9,11,11],"right_children":[2,4,-1,6,-1,8,-1,-1,10,12,-1,14,-1,-1,-1],"split_conditions":[5E0,2E0,5.0205577E-2,3E0,4.9511712E-2,2E0,4.692896E-2,-4.9669348E-2,1E0,2.024E3,3.551204E-2,2.023E3,-4.641541E-2,-2.9646873E-2,-1.3134782E-2],"split_indices":[0,2,0,3,0,0,0,0,4,5,0,5,0,0,0],"split_type":[0,0,0,0,0,0,0,0,0,0,0,0,0,0,0],"sum_hessian":[6.6620715E2,4.7303757E2,1.9316962E2,4.19328E2,5.3709576E1,4.0584094E2,1.3487037E1,6.712495E1,3.38716E2,3.363778E2,2.3381987E0,3.1993954E2,1.6438276E1,2.9097656E2,2.8962961E1],"tree_param":{"num_deleted":"0","num_feature":"7","num_nodes":"15","size_leaf_vector":"1"}},{"base_weights":[3.3871594E-3,-4.9119856E-2,5.1441092E-2],"categories":[],"categories_nodes":[],"categories_segments":[],"categories_sizes":[],"default_left":[0,0,0],"id":84,"left_children":[1,-1,-1],"loss_changes":[6.5447614E2,0E0,0E0],"parents":[2147483647,0,0],"right_children":[2,-1,-1],"split_conditions":[8E1,-4.9119856E-2,5.1441092E-2],"split_indices":[1,0,0],"split_type":[0,0,0],"sum_hessian":[6.454468E2,3.2910712E2,3.1633963E2],"tree_param":{"num_deleted":"0","num_feature":"7","num_nodes":"3","size_leaf_vector":"1"}},{"base_weights":[2.2741703E-3,-4.033115E-1,5.0150067E-2,-5.738752E-1,4.934889E-2,-6.245705E-1,4.654422E-2,-4.9552523E-2,-5.518498E-1,-5.6298196E-1,3.5062056E-2,-5.417156E-1,-4.6093818E-2,-2.8525392E-2,-1.2239839E-2],"categories":[],"categories_nodes":[],"categories_segments":[],"categories_sizes":[],"default_left":[0,0,0,0,0,0,0,0,0,0,0,0,0,0,0],"id":85,"left_children":[1,3,-1,5,-1,7,-1,-1,9,11,-1,13,-1,-1,-1],"loss_changes":[2.503054E2,1.0463064E2,0E0,3.0448242E1,0E0,9.563232E0,0E0,0E0,4.841957E0,1.916626E0,0E0,2.4358673E0,0E0,0E0,0E0],"parents":[2147483647,0,0,1,1,3,3,5,5,8,8,9,9,11,11],"right_children":[2,4,-1,6,-1,8,-1,-1,10,12,-1,14,-1,-1,-1],"split_conditions":[5E0,2E0,5.0150067E-2,3E0,4.934889E-2,2E0,4.654422E-2,-4.9552523E-2,1E0,2.024E3,3.5062056E-2,2.023E3,-4.6093818E-2,-2.8525392E-2,-1.2239839E-2],"split_indices":[0,2,0,3,0,0,0,0,4,5,0,5,0,0,0],"split_type":[0,0,0,0,0,0,0,0,0,0,0,0,0,0,0],"sum_hessian":[6.1470044E2,4.3784348E2,1.7685701E2,3.9052075E2,4.732271E1,3.783588E2,1.2161948E1,6.0555866E1,3.1780295E2,3.1555038E2,2.2525423E0,3.0026743E2,1.5282978E1,2.728844E2,2.7383013E1],"tree_param":{"num_deleted":"0","num_feature":"7","num_nodes":"15","size_leaf_vector":"1"}},{"base_weights":[9.900494E-3,-9.784177E-1,5.1429678E-2,-5.029257E-2,4.265044E-2],"categories":[],"categories_nodes":[],"categories_segments":[],"categories_sizes":[],"default_left":[0,0,0,0,0],"id":86,"left_children":[1,3,-1,-1,-1],"loss_changes":[6.0576044E2,1.6201843E1,0E0,0E0,0E0],"parents":[2147483647,0,0,1,1],"right_children":[2,4,-1,-1,-1],"split_conditions":[8E1,5E0,5.1429678E-2,-5.029257E-2,4.265044E-2],"split_indices":[1,0,0,0,0],"split_type":[0,0,0,0,0],"sum_hessian":[5.9967377E2,3.0439478E2,2.9527896E2,3.0034656E2,4.0482254E0],"tree_param":{"num_deleted":"0","num_feature":"7","num_nodes":"5","size_leaf_vector":"1"}},{"base_weights":[8.134803E-3,-4.8875283E-2,5.1351048E-2],"categories":[],"categories_nodes":[],"categories_segments":[],"categories_sizes":[],"default_left":[0,0,0],"id":87,"left_children":[1,-1,-1],"loss_changes":[5.7406305E2,0E0,0E0],"parents":[2147483647,0,0],"right_children":[2,-1,-1],"split_conditions":[8E1,-4.8875283E-2,5.1351048E-2],"split_indices":[1,0,0],"split_type":[0,0,0],"sum_hessian":[5.6963086E2,2.8955984E2,2.80071E2],"tree_param":{"num_deleted":"0","num_feature":"7","num_nodes":"3","size_leaf_vector":"1"}},{"base_weights":[3.451119E-4,-9.8316455E-1,5.1220298E-2,-5.0231833E-2,3.9335586E-2],"categories":[],"categories_nodes":[],"categories_segments":[],"categories_sizes":[],"default_left":[0,0,0,0,0],"id":88,"left_children":[1,3,-1,-1,-1],"loss_changes":[5.4461273E2,1.1272644E1,0E0,0E0,0E0],"parents":[2147483647,0,0,1,1],"right_children":[2,4,-1,-1,-1],"split_conditions":[8E1,5E0,5.1220298E-2,-5.0231833E-2,3.9335586E-2],"split_indices":[1,0,0,0,0],"split_type":[0,0,0,0,0],"sum_hessian":[5.3873364E2,2.7482816E2,2.6390546E2,2.719611E2,2.867057E0],"tree_param":{"num_deleted":"0","num_feature":"7","num_nodes":"5","size_leaf_vector":"1"}},{"base_weights":[-3.5841828E-3,-4.871975E-2,5.1109176E-2],"categories":[],"categories_nodes":[],"categories_segments":[],"categories_sizes":[],"default_left":[0,0,0],"id":89,"left_children":[1,-1,-1],"loss_changes":[5.129561E2,0E0,0E0],"parents":[2147483647,0,0],"right_children":[2,-1,-1],"split_conditions":[8E1,-4.871975E-2,5.1109176E-2],"split_indices":[1,0,0],"split_type":[0,0,0],"sum_hessian":[5.1310583E2,2.636404E2,2.4946542E2],"tree_param":{"num_deleted":"0","num_feature":"7","num_nodes":"3","size_leaf_vector":"1"}},{"base_weights":[3.525143E-4,-3.904373E-1,5.0004598E-2,-5.031124E-1,4.8440903E-2,-5.564698E-1,4.6221796E-2,-4.925194E-2,-4.771553E-1,-4.874314E-1,3.2745864E-2,-6.024538E-1,-4.3313822E-1,-3.6617525E-2,-1.868803E-2,-2.0596074E-2,-3.9654005E-2],"categories":[],"categories_nodes":[],"categories_segments":[],"categories_sizes":[],"default_left":[0,0,0,0,0,0,0,0,0,0,0,0,0,0,0,0,0],"id":90,"left_children":[1,3,-1,5,-1,7,-1,-1,9,11,-1,13,15,-1,-1,-1,-1],"loss_changes":[1.9237158E2,5.4705875E1,0E0,2.5465607E1,0E0,1.0284721E1,0E0,0E0,3.447689E0,1.4069252E0,0E0,2.1943874E0,1.0860672E0,0E0,0E0,0E0,0E0],"parents":[2147483647,0,0,1,1,3,3,5,5,8,8,9,9,11,11,12,12],"right_children":[2,4,-1,6,-1,8,-1,-1,10,12,-1,14,16,-1,-1,-1,-1],"split_conditions":[5E0,3E0,5.0004598E-2,9E0,4.8440903E-2,2E0,4.6221796E-2,-4.925194E-2,1E0,3E0,3.2745864E-2,2.02E3,2.024E3,-3.6617525E-2,-1.868803E-2,-2.0596074E-2,-3.9654005E-2],"split_indices":[0,3,0,6,0,0,0,0,4,0,0,5,5,0,0,0,0],"split_type":[0,0,0,0,0,0,0,0,0,0,0,0,0,0,0,0,0],"sum_hessian":[4.903924E2,3.5301227E2,1.3738011E2,3.2657114E2,2.6441153E1,3.1539288E2,1.1178233E1,4.7470528E1,2.6792236E2,2.6607654E2,1.8458102E0,8.2083336E1,1.8399321E2,5.0944675E1,3.1138662E1,1.757765E2,8.216712E0],"tree_param":{"num_deleted":"0","num_feature":"7","num_nodes":"17","size_leaf_vector":"1"}},{"base_weights":[2.5486997E-3,-3.2453027E-1,4.9842957E-2,-4.4504535E-1,4.8627675E-2,-5.0325817E-1,4.6655722E-2,-5.17429E-1,3.760308E-2,-5.030426E-1,-7.400525E-1,-5.304075E-1,-2.2103432E-1,-1.6404559E-4,-4.4252355E-2,-2.3058578E-2,-2.9353524E-2,-1.51941925E-2,8.322075E-3],"categories":[],"categories_nodes":[],"categories_segments":[],"categories_sizes":[],"default_left":[0,0,0,0,0,0,0,0,0,0,0,0,0,0,0,0,0,0,0],"id":91,"left_children":[1,3,-1,5,-1,7,-1,9,-1,11,13,15,17,-1,-1,-1,-1,-1,-1],"loss_changes":[1.5509856E2,5.652998E1,0E0,2.68676E1,0E0,6.0167923E0,0E0,6.315155E-1,0E0,2.1787415E0,1.8026953E0,7.904053E-1,9.504218E-1,0E0,0E0,0E0,0E0,0E0,0E0],"parents":[2147483647,0,0,1,1,3,3,5,5,7,7,9,9,10,10,11,11,12,12],"right_children":[2,4,-1,6,-1,8,-1,10,-1,12,14,16,18,-1,-1,-1,-1,-1,-1],"split_conditions":[2E0,3E0,4.9842957E-2,9E0,4.8627675E-2,1E0,4.6655722E-2,2.024E3,3.760308E-2,2.023E3,1E0,4E0,8E0,-1.6404559E-4,-4.4252355E-2,-2.3058578E-2,-2.9353524E-2,-1.51941925E-2,8.322075E-3],"split_indices":[2,3,0,6,0,4,0,5,0,5,6,6,6,0,0,0,0,0,0],"split_type":[0,0,0,0,0,0,0,0,0,0,0,0,0,0,0,0,0,0,0],"sum_hessian":[4.7491165E2,3.5786526E2,1.1704637E2,3.2804294E2,2.9822348E1,3.153572E2,1.2685709E1,3.1241827E2,2.9389615E0,2.9651633E2,1.5901938E1,2.6948575E2,2.7030577E1,2.7830172E0,1.3118921E1,1.2539981E2,1.4408594E2,2.2446775E1,4.5838027E0],"tree_param":{"num_deleted":"0","num_feature":"7","num_nodes":"19","size_leaf_vector":"1"}},{"base_weights":[-9.751326E-3,-4.8996236E-2,5.112E-2],"categories":[],"categories_nodes":[],"categories_segments":[],"categories_sizes":[],"default_left":[0,0,0],"id":92,"left_children":[1,-1,-1],"loss_changes":[4.6102444E2,0E0,0E0],"parents":[2147483647,0,0],"right_children":[2,-1,-1],"split_conditions":[8E1,-4.8996236E-2,5.112E-2],"split_indices":[1,0,0],"split_type":[0,0,0],"sum_hessian":[4.583952E2,2.3631804E2,2.2207716E2],"tree_param":{"num_deleted":"0","num_feature":"7","num_nodes":"3","size_leaf_vector":"1"}},{"base_weights":[7.2701294E-3,-9.67486E-1,5.1196087E-2,-5.0115164E-2,4.240827E-2],"categories":[],"categories_nodes":[],"categories_segments":[],"categories_sizes":[],"default_left":[0,0,0,0,0],"id":93,"left_children":[1,3,-1,-1,-1],"loss_changes":[4.4020627E2,1.5186295E1,0E0,0E0,0E0],"parents":[2147483647,0,0,1,1],"right_children":[2,4,-1,-1,-1],"split_conditions":[8E1,5E0,5.1196087E-2,-5.0115164E-2,4.240827E-2],"split_indices":[1,0,0,0,0],"split_type":[0,0,0,0,0],"sum_hessian":[4.4221014E2,2.2578139E2,2.1642876E2,2.2197278E2,3.8086104E0],"tree_param":{"num_deleted":"0","num_feature":"7","num_nodes":"5","size_leaf_vector":"1"}},{"base_weights":[1.4814173E-2,-9.6408844E-1,5.1095318E-2,-5.0087977E-2,4.245546E-2],"categories":[],"categories_nodes":[],"categories_segments":[],"categories_sizes":[],"default_left":[0,0,0,0,0],"id":94,"left_children":[1,3,-1,-1,-1],"loss_changes":[4.2168814E2,1.5667007E1,0E0,0E0,0E0],"parents":[2147483647,0,0,1,1],"right_children":[2,4,-1,-1,-1],"split_conditions":[8E1,5E0,5.1095318E-2,-5.0087977E-2,4.245546E-2],"split_indices":[1,0,0,0,0],"split_type":[0,0,0,0,0],"sum_hessian":[4.257434E2,2.159149E2,2.0982852E2,2.1195876E2,3.9561489E0],"tree_param":{"num_deleted":"0","num_feature":"7","num_nodes":"5","size_leaf_vector":"1"}},{"base_weights":[1.3545276E-2,-4.8153456E-2,5.1078178E-2],"categories":[],"categories_nodes":[],"categories_segments":[],"categories_sizes":[],"default_left":[0,0,0],"id":95,"left_children":[1,-1,-1],"loss_changes":[3.9949152E2,0E0,0E0],"parents":[2147483647,0,0],"right_children":[2,-1,-1],"split_conditions":[8E1,-4.8153456E-2,5.1078178E-2],"split_indices":[1,0,0],"split_type":[0,0,0],"sum_hessian":[4.0380438E2,2.0511964E2,1.9868474E2],"tree_param":{"num_deleted":"0","num_feature":"7","num_nodes":"3","size_leaf_vector":"1"}},{"base_weights":[9.329995E-3,-9.591598E-1,5.0942667E-2,-5.0034326E-2,4.2512633E-2],"categories":[],"categories_nodes":[],"categories_segments":[],"categories_sizes":[],"default_left":[0,0,0,0,0],"id":96,"left_children":[1,3,-1,-1,-1],"loss_changes":[3.7871545E2,1.5705551E1,0E0,0E0,0E0],"parents":[2147483647,0,0,1,1],"right_children":[2,4,-1,-1,-1],"split_conditions":[8E1,5E0,5.0942667E-2,-5.0034326E-2,4.2512633E-2],"split_indices":[1,0,0,0,0],"split_type":[0,0,0,0,0],"sum_hessian":[3.8534875E2,1.9669682E2,1.8865192E2,1.9272076E2,3.9760618E0],"tree_param":{"num_deleted":"0","num_feature":"7","num_nodes":"5","size_leaf_vector":"1"}},{"base_weights":[1.4827058E-2,-4.7903087E-2,5.0882727E-2],"categories":[],"categories_nodes":[],"categories_segments":[],"categories_sizes":[],"default_left":[0,0,0],"id":97,"left_children":[1,-1,-1],"loss_changes":[3.6079507E2,0E0,0E0],"parents":[2147483647,0,0],"right_children":[2,-1,-1],"split_conditions":[8E1,-4.7903087E-2,5.0882727E-2],"split_indices":[1,0,0],"split_type":[0,0,0],"sum_hessian":[3.6780435E2,1.8671156E2,1.8109279E2],"tree_param":{"num_deleted":"0","num_feature":"7","num_nodes":"3","size_leaf_vector":"1"}},{"base_weights":[-4.0885424E-3,-9.5355093E-1,5.0750304E-2,-4.997955E-2,4.256668E-2],"categories":[],"categories_nodes":[],"categories_segments":[],"categories_sizes":[],"default_left":[0,0,0,0,0],"id":98,"left_children":[1,3,-1,-1,-1],"loss_changes":[3.347541E2,1.5733612E1,0E0,0E0,0E0],"parents":[2147483647,0,0,1,1],"right_children":[2,4,-1,-1,-1],"split_conditions":[8E1,5E0,5.0750304E-2,-4.997955E-2,4.256668E-2],"split_indices":[1,0,0,0,0],"split_type":[0,0,0,0,0],"sum_hessian":[3.4396585E2,1.7809964E2,1.6586621E2,1.7410466E2,3.994986E0],"tree_param":{"num_deleted":"0","num_feature":"7","num_nodes":"5","size_leaf_vector":"1"}},{"base_weights":[1.4818038E-2,-4.7778413E-2,5.0775047E-2],"categories":[],"categories_nodes":[],"categories_segments":[],"categories_sizes":[],"default_left":[0,0,0],"id":99,"left_children":[1,-1,-1],"loss_changes":[3.2665036E2,0E0,0E0],"parents":[2147483647,0,0],"right_children":[2,-1,-1],"split_conditions":[8E1,-4.7778413E-2,5.0775047E-2],"split_indices":[1,0,0],"split_type":[0,0,0],"sum_hessian":[3.343899E2,1.6978772E2,1.6460216E2],"tree_param":{"num_deleted":"0","num_feature":"7","num_nodes":"3","size_leaf_vector":"1"}},{"base_weights":[9.407102E-3,-4.7468435E-2,5.06618E-2],"categories":[],"categories_nodes":[],"categories_segments":[],"categories_sizes":[],"default_left":[0,0,0],"id":100,"left_children":[1,-1,-1],"loss_changes":[3.0691937E2,0E0,0E0],"parents":[2147483647,0,0],"right_children":[2,-1,-1],"split_conditions":[8E1,-4.7468435E-2,5.06618E-2],"split_indices":[1,0,0],"split_type":[0,0,0],"sum_hessian":[3.1689542E2,1.6211275E2,1.5478268E2],"tree_param":{"num_deleted":"0","num_feature":"7","num_nodes":"3","size_leaf_vector":"1"}},{"base_weights":[1.3215419E-2,-4.7130685E-2,5.061358E-2],"categories":[],"categories_nodes":[],"categories_segments":[],"categories_sizes":[],"default_left":[0,0,0],"id":101,"left_children":[1,-1,-1],"loss_changes":[2.9160925E2,0E0,0E0],"parents":[2147483647,0,0],"right_children":[2,-1,-1],"split_conditions":[8E1,-4.7130685E-2,5.061358E-2],"split_indices":[1,0,0],"split_type":[0,0,0],"sum_hessian":[3.0337415E2,1.550701E2,1.4830405E2],"tree_param":{"num_deleted":"0","num_feature":"7","num_nodes":"3","size_leaf_vector":"1"}},{"base_weights":[1.4034256E-2,-9.3711996E-1,5.055895E-2,-4.987361E-2,4.3559402E-2],"categories":[],"categories_nodes":[],"categories_segments":[],"categories_sizes":[],"default_left":[0,0,0,0,0],"id":102,"left_children":[1,3,-1,-1,-1],"loss_changes":[2.7687213E2,1.717546E1,0E0,0E0,0E0],"parents":[2147483647,0,0,1,1],"right_children":[2,4,-1,-1,-1],"split_conditions":[8E1,5E0,5.055895E-2,-4.987361E-2,4.3559402E-2],"split_indices":[1,0,0,0,0],"split_type":[0,0,0,0,0],"sum_hessian":[2.899251E2,1.4841527E2,1.4150984E2,1.4405582E2,4.359463E0],"tree_param":{"num_deleted":"0","num_feature":"7","num_nodes":"5","size_leaf_vector":"1"}},{"base_weights":[7.952273E-3,-9.536723E-1,5.0519448E-2,-4.9846124E-2,3.9857827E-2],"categories":[],"categories_nodes":[],"categories_segments":[],"categories_sizes":[],"default_left":[0,0,0,0,0],"id":103,"left_children":[1,3,-1,-1,-1],"loss_changes":[2.668134E2,1.1492416E1,0E0,0E0,0E0],"parents":[2147483647,0,0,1,1],"right_children":[2,4,-1,-1,-1],"split_conditions":[8E1,5E0,5.0519448E-2,-4.9846124E-2,3.9857827E-2],"split_indices":[1,0,0,0,0],"split_type":[0,0,0,0,0],"sum_hessian":[2.7478702E2,1.402733E2,1.3451372E2,1.3731194E2,2.9613686E0],"tree_param":{"num_deleted":"0","num_feature":"7","num_nodes":"5","size_leaf_vector":"1"}},{"base_weights":[3.8950555E-3,-9.347511E-1,5.040902E-2,-4.9817603E-2,4.2730715E-2],"categories":[],"categories_nodes":[],"categories_segments":[],"categories_sizes":[],"default_left":[0,0,0,0,0],"id":104,"left_children":[1,3,-1,-1,-1],"loss_changes":[2.4739651E2,1.5804459E1,0E0,0E0,0E0],"parents":[2147483647,0,0,1,1],"right_children":[2,4,-1,-1,-1],"split_conditions":[8E1,5E0,5.040902E-2,-4.9817603E-2,4.2730715E-2],"split_indices":[1,0,0,0,0],"split_type":[0,0,0,0,0],"sum_hessian":[2.6044302E2,1.3465665E2,1.2578637E2,1.3060365E2,4.0529947E0],"tree_param":{"num_deleted":"0","num_feature":"7","num_nodes":"5","size_leaf_vector":"1"}},{"base_weights":[5.52561E-3,-9.496172E-1,5.0387748E-2,-4.9790617E-2,3.934447E-2],"categories":[],"categories_nodes":[],"categories_segments":[],"categories_sizes":[],"default_left":[0,0,0,0,0],"id":105,"left_children":[1,3,-1,-1,-1],"loss_changes":[2.4072783E2,1.1112801E1,0E0,0E0,0E0],"parents":[2147483647,0,0,1,1],"right_children":[2,4,-1,-1,-1],"split_conditions":[8E1,5E0,5.0387748E-2,-4.9790617E-2,3.934447E-2],"split_indices":[1,0,0,0,0],"split_type":[0,0,0,0,0],"sum_hessian":[2.49473E2,1.2776404E2,1.2170896E2,1.2486878E2,2.8952587E0],"tree_param":{"num_deleted":"0","num_feature":"7","num_nodes":"5","size_leaf_vector":"1"}},{"base_weights":[-8.054681E-3,-3.166152E-1,4.923339E-2,-4.2562467E-1,4.6721343E-2,-4.7761893E-1,4.282114E-2,-4.892887E-1,2.7923504E-2,-4.1196942E-1,-5.525443E-1,-5.7167506E-1,-2.7389213E-1,-5.7911867E-1,-3.6397058E-1,-3.991207E-2,-2.2889072E-2,-9.863598E-3,-2.5390828E-2,-2.2912744E-2,-3.2975104E-2,-5.285793E-3,-3.872794E-2],"categories":[],"categories_nodes":[],"categories_segments":[],"categories_sizes":[],"default_left":[0,0,0,0,0,0,0,0,0,0,0,0,0,0,0,0,0,0,0,0,0,0,0],"id":106,"left_children":[1,3,-1,5,-1,7,-1,9,-1,11,13,15,17,19,21,-1,-1,-1,-1,-1,-1,-1,-1],"loss_changes":[7.229742E1,2.4950409E1,0E0,1.1494085E1,0E0,2.2132988E0,0E0,5.510025E-1,0E0,1.5098162E0,2.1333694E-1,5.150204E-1,6.606283E-1,4.0203094E-1,1.3120031E0,0E0,0E0,0E0,0E0,0E0,0E0,0E0,0E0],"parents":[2147483647,0,0,1,1,3,3,5,5,7,7,9,9,10,10,11,11,12,12,13,13,14,14],"right_children":[2,4,-1,6,-1,8,-1,10,-1,12,14,16,18,20,22,-1,-1,-1,-1,-1,-1,-1,-1],"split_conditions":[2E0,3E0,4.923339E-2,9E0,4.6721343E-2,1E0,4.282114E-2,4E0,2.7923504E-2,2E0,2.023E3,2.015E3,2.021E3,2.015E3,2.024E3,-3.991207E-2,-2.2889072E-2,-9.863598E-3,-2.5390828E-2,-2.2912744E-2,-3.2975104E-2,-5.285793E-3,-3.872794E-2],"split_indices":[2,3,0,6,0,4,0,6,0,6,5,5,5,5,5,0,0,0,0,0,0,0,0],"split_type":[0,0,0,0,0,0,0,0,0,0,0,0,0,0,0,0,0,0,0,0,0,0,0],"sum_hessian":[2.3400537E2,1.7903754E2,5.496784E1,1.652944E2,1.3743132E1,1.5945505E2,5.8393497E0,1.5820094E2,1.2541063E0,7.456753E1,8.363341E1,3.311971E1,4.1447823E1,7.1488045E1,1.2145362E1,9.0694275E0,